{"learner":{"attributes":{"best_iteration":"236","best_score":"0.04920417728498842","scikit_learn":"{\"_estimator_type\": \"regressor\"}"},"feature_names":["wind_speed","wind_dir_sin","wind_dir_cos","air_density","wind_capacity","power_lag1","wind_speed_lag1","wind_speed_lag3","wind_speed_avg3"],"feature_types":["float","float","float","float","float","float","float","float","float"],"gradient_booster":{"model":{"cats":{"enc":[],"feature_segments":[],"sorted_idx":[]},"gbtree_model_param":{"num_parallel_tree":"1","num_trees":"287"},"iteration_indptr":[0,1,2,3,4,5,6,7,8,9,10,11,12,13,14,15,16,17,18,19,20,21,22,23,24,25,26,27,28,29,30,31,32,33,34,35,36,37,38,39,40,41,42,43,44,45,46,47,48,49,50,51,52,53,54,55,56,57,58,59,60,61,62,63,64,65,66,67,68,69,70,71,72,73,74,75,76,77,78,79,80,81,82,83,84,85,86,87,88,89,90,91,92,93,94,95,96,97,98,99,100,101,102,103,104,105,106,107,108,109,110,111,112,113,114,115,116,117,118,119,120,121,122,123,124,125,126,127,128,129,130,131,132,133,134,135,136,137,138,139,140,141,142,143,144,145,146,147,148,149,150,151,152,153,154,155,156,157,158,159,160,161,162,163,164,165,166,167,168,169,170,171,172,173,174,175,176,177,178,179,180,181,182,183,184,185,186,187,188,189,190,191,192,193,194,195,196,197,198,199,200,201,202,203,204,205,206,207,208,209,210,211,212,213,214,215,216,217,218,219,220,221,222,223,224,225,226,227,228,229,230,231,232,233,234,235,236,237,238,239,240,241,242,243,244,245,246,247,248,249,250,251,252,253,254,255,256,257,258,259,260,261,262,263,264,265,266,267,268,269,270,271,272,273,274,275,276,277,278,279,280,281,282,283,284,285,286,287],"tree_info":[0,0,0,0,0,0,0,0,0,0,0,0,0,0,0,0,0,0,0,0,0,0,0,0,0,0,0,0,0,0,0,0,0,0,0,0,0,0,0,0,0,0,0,0,0,0,0,0,0,0,0,0,0,0,0,0,0,0,0,0,0,0,0,0,0,0,0,0,0,0,0,0,0,0,0,0,0,0,0,0,0,0,0,0,0,0,0,0,0,0,0,0,0,0,0,0,0,0,0,0,0,0,0,0,0,0,0,0,0,0,0,0,0,0,0,0,0,0,0,0,0,0,0,0,0,0,0,0,0,0,0,0,0,0,0,0,0,0,0,0,0,0,0,0,0,0,0,0,0,0,0,0,0,0,0,0,0,0,0,0,0,0,0,0,0,0,0,0,0,0,0,0,0,0,0,0,0,0,0,0,0,0,0,0,0,0,0,0,0,0,0,0,0,0,0,0,0,0,0,0,0,0,0,0,0,0,0,0,0,0,0,0,0,0,0,0,0,0,0,0,0,0,0,0,0,0,0,0,0,0,0,0,0,0,0,0,0,0,0,0,0,0,0,0,0,0,0,0,0,0,0,0,0,0,0,0,0,0,0,0,0,0,0,0,0,0,0,0,0,0,0,0,0,0,0,0,0,0,0,0,0,0,0,0,0,0,0],"trees":[{"base_weights":[-3.336186E-4,-1.4405786E-1,2.6611528E-1,-2.137828E-1,-4.0395264E-2,1.6358681E-1,4.053774E-1,-2.4981044E-1,-1.6838364E-1,-8.269619E-2,5.938669E-3,1.08780086E-1,2.233649E-1,3.4700242E-1,4.9394128E-1,-2.6921937E-1,-2.2592905E-1,-1.8650289E-1,-1.4645007E-1,-1.0470352E-1,-6.1954003E-2,-1.5836846E-2,3.0707568E-2,8.393618E-2,1.3952507E-1,1.9475648E-1,2.5414133E-1,3.1377968E-1,3.835913E-1,4.6227708E-1,1.6671367E-2,-8.501699E-3,-7.7392384E-3,-7.118365E-3,-6.546648E-3,-6.0044313E-3,-5.3442717E-3,-4.708117E-3,-4.1339183E-3,-3.429489E-3,-2.809265E-3,-2.194088E-3,-1.5290998E-3,-2.7471269E-2,-2.1951916E-3,1.2224373E-2,4.1118838E-2,6.701133E-2,3.0140036E-3,4.759092E-3,1.2875849E-1,1.8432578E-1,6.3263075E-3,6.7864973E-3,7.893261E-3,8.933155E-3,9.868113E-3,1.1093834E-2,1.21949455E-2,1.3169037E-2,1.4537645E-2,-1.055714E-3,-3.2784205E-4,-5.861995E-4,6.6597187E-3,1.2906931E-3,1.6272538E-4,8.5132476E-4,1.6390068E-3,8.780562E-2,5.6223545E-2,1.10836804E-1,4.1498044E-3,5.958003E-3,4.984541E-3,9.5210205E-5,2.065089E-3,2.1815503E-3,3.9214427E-3,8.3726534E-4,2.0866103E-3,4.3568504E-3,2.8478943E-3],"categories":[],"categories_nodes":[],"categories_segments":[],"categories_sizes":[],"default_left":[0,0,0,0,0,0,0,0,0,0,0,0,0,0,0,0,0,0,0,0,0,0,0,0,0,0,0,0,0,0,0,0,0,0,0,0,0,0,0,0,0,0,0,0,0,0,0,0,0,0,0,0,0,0,0,0,0,0,0,0,0,0,0,0,0,0,0,0,0,0,0,0,0,0,0,0,0,0,0,0,0,0,0],"id":0,"left_children":[1,3,5,7,9,11,13,15,17,19,21,23,25,27,29,31,33,35,37,39,41,43,45,47,49,51,53,55,57,59,-1,-1,-1,-1,-1,-1,-1,-1,-1,-1,-1,-1,-1,61,63,65,67,69,-1,-1,71,73,-1,-1,-1,-1,-1,-1,-1,-1,-1,-1,-1,-1,75,-1,-1,-1,-1,77,79,81,-1,-1,-1,-1,-1,-1,-1,-1,-1,-1,-1],"loss_changes":[1.0552112E3,1.2934479E2,1.3773413E2,1.7418945E1,1.4119937E1,1.8168228E1,2.090503E1,2.6535645E0,1.8227539E0,1.6954975E0,1.8551991E0,2.1848564E0,2.2467651E0,2.8135986E0,2.8157654E0,3.957367E-1,1.3729858E-1,2.2185516E-1,1.4409256E-1,1.6233826E-1,2.2251272E-1,2.869413E-1,3.0398083E-1,4.2724228E-1,2.1729851E-1,1.5432358E-1,2.1107483E-1,1.552887E-1,1.4181519E-1,2.5657654E-1,0E0,0E0,0E0,0E0,0E0,0E0,0E0,0E0,0E0,0E0,0E0,0E0,0E0,1.2040526E-1,1.313524E-1,1.1744273E-1,1.668216E-1,1.6056824E-1,0E0,0E0,1.0328007E-1,1.5155983E-1,0E0,0E0,0E0,0E0,0E0,0E0,0E0,0E0,0E0,0E0,0E0,0E0,1.133105E-1,0E0,0E0,0E0,0E0,1.4429712E-1,1.8986487E-1,1.263175E-1,0E0,0E0,0E0,0E0,0E0,0E0,0E0,0E0,0E0,0E0,0E0],"parents":[2147483647,0,0,1,1,2,2,3,3,4,4,5,5,6,6,7,7,8,8,9,9,10,10,11,11,12,12,13,13,14,14,15,15,16,16,17,17,18,18,19,19,20,20,21,21,22,22,23,23,24,24,25,25,26,26,27,27,28,28,29,29,43,43,44,44,45,45,46,46,47,47,50,50,51,51,64,64,69,69,70,70,71,71],"right_children":[2,4,6,8,10,12,14,16,18,20,22,24,26,28,30,32,34,36,38,40,42,44,46,48,50,52,54,56,58,60,-1,-1,-1,-1,-1,-1,-1,-1,-1,-1,-1,-1,-1,62,64,66,68,70,-1,-1,72,74,-1,-1,-1,-1,-1,-1,-1,-1,-1,-1,-1,-1,76,-1,-1,-1,-1,78,80,82,-1,-1,-1,-1,-1,-1,-1,-1,-1,-1,-1],"split_conditions":[3.338E-1,1.608E-1,5.501E-1,8.44E-2,2.434E-1,4.377E-1,6.812E-1,4.92E-2,1.235E-1,2.001E-1,2.879E-1,3.884E-1,4.937E-1,6.128E-1,7.68E-1,2.52E-2,6.36E-2,9.83E-2,1.393E-1,1.819E-1,7.4E0,7.98E0,2.5785364E-2,8.43E0,-4.0673664E-1,1.053E1,8.54E0,5.821E-1,6.55E-1,7.22E-1,1.6671367E-2,-8.501699E-3,-7.7392384E-3,-7.118365E-3,-6.546648E-3,-6.0044313E-3,-5.3442717E-3,-4.708117E-3,-4.1339183E-3,-3.429489E-3,-2.809265E-3,-2.194088E-3,-1.5290998E-3,2.717E-1,2.581E-1,3.7033334E0,3.114E-1,6.386667E0,3.0140036E-3,4.759092E-3,3.8522575E-2,2.7563736E-1,6.3263075E-3,6.7864973E-3,7.893261E-3,8.933155E-3,9.868113E-3,1.1093834E-2,1.21949455E-2,1.3169037E-2,1.4537645E-2,-1.055714E-3,-3.2784205E-4,-5.861995E-4,1.2769416E-1,1.2906931E-3,1.6272538E-4,8.5132476E-4,1.6390068E-3,5.77E0,7.13E0,6.6E0,4.1498044E-3,5.958003E-3,4.984541E-3,9.5210205E-5,2.065089E-3,2.1815503E-3,3.9214427E-3,8.3726534E-4,2.0866103E-3,4.3568504E-3,2.8478943E-3],"split_indices":[5,5,5,5,5,5,5,5,5,5,5,5,5,5,5,5,5,5,5,5,0,0,4,0,2,0,0,5,5,5,0,0,0,0,0,0,0,0,0,0,0,0,0,5,5,8,5,8,0,0,4,2,0,0,0,0,0,0,0,0,0,0,0,0,4,0,0,0,0,0,0,8,0,0,0,0,0,0,0,0,0,0,0],"split_type":[0,0,0,0,0,0,0,0,0,0,0,0,0,0,0,0,0,0,0,0,0,0,0,0,0,0,0,0,0,0,0,0,0,0,0,0,0,0,0,0,0,0,0,0,0,0,0,0,0,0,0,0,0,0,0,0,0,0,0,0,0,0,0,0,0,0,0,0,0,0,0,0,0,0,0,0,0,0,0,0,0,0,0],"sum_hessian":[2.7553E4,1.7899E4,9.654E3,1.07E4,7.199E3,5.562E3,4.092E3,5.962E3,4.738E3,3.764E3,3.435E3,2.904E3,2.658E3,2.47E3,1.622E3,3.281E3,2.681E3,2.588E3,2.15E3,1.822E3,1.942E3,1.826E3,1.609E3,1.61E3,1.294E3,1.383E3,1.275E3,1.301E3,1.169E3,1.079E3,5.43E2,1.437E3,1.844E3,1.067E3,1.614E3,9.7E2,1.618E3,9.59E2,1.191E3,9.65E2,8.57E2,9.55E2,9.87E2,9.81E2,8.45E2,5.84E2,1.025E3,8.01E2,8.09E2,4.58E2,8.36E2,8.51E2,5.32E2,3.19E2,9.56E2,6.46E2,6.55E2,7.43E2,4.26E2,5.4E2,5.39E2,6.64E2,3.17E2,2.89E2,5.56E2,1.02E2,4.82E2,5.33E2,4.92E2,2.68E2,5.33E2,2.99E2,5.37E2,4.68E2,3.83E2,5.29E2,2.7E1,2.02E2,6.6E1,1.74E2,3.59E2,9E1,2.09E2],"tree_param":{"num_deleted":"0","num_feature":"9","num_nodes":"83","size_leaf_vector":"1"}},{"base_weights":[9.1023144E-4,-1.3991821E-1,2.5912505E-1,-2.071972E-1,-3.9350376E-2,1.6354732E-1,3.9964518E-1,-2.4239698E-1,-1.6337788E-1,-7.970861E-2,7.1977023E-3,1.0535488E-1,2.2109216E-1,3.490371E-1,4.8914605E-1,-2.654755E-1,-2.2404368E-1,-1.8095392E-1,-1.4213961E-1,-1.015939E-1,-5.9989084E-2,-1.0332255E-2,3.50378E-2,8.257948E-2,1.3378838E-1,1.9630045E-1,2.5674424E-1,3.1499943E-1,3.8541877E-1,1.3736423E-2,1.6176077E-2,-8.362123E-3,-7.7091344E-3,-7.0454013E-3,-6.3729533E-3,-5.806603E-3,-5.1917234E-3,-4.5720995E-3,-4.0088953E-3,-1.08991206E-1,-2.6338245E-3,-6.807807E-2,-1.3746658E-3,-1.7829202E-2,1.5833236E-2,2.4834264E-2,5.0468702E-2,6.600933E-2,9.846051E-2,4.844204E-3,1.2533912E-1,1.7724356E-1,2.0737366E-1,2.2730975E-1,7.985055E-3,9.013393E-3,1.0038329E-2,1.10329725E-2,1.2166927E-2,-2.9183794E-3,-3.911738E-3,-1.6900714E-3,-2.3719247E-3,-5.6450022E-3,-3.183738E-2,2.881903E-4,1.7151252E-3,1.3709774E-3,3.7402296E-4,2.1057497E-3,9.2321966E-4,3.058976E-3,5.2672353E-2,3.8713606E-3,7.566809E-2,2.6381873E-3,1.3929753E-1,1.4824136E-1,5.614852E-3,6.7077735E-3,5.9005218E-3,7.530881E-3,5.7154666E-3,-9.874084E-4,8.8073764E-5,-1.7548888E-3,-6.316688E-4,1.7557837E-3,2.4432028E-4,1.5792093E-3,2.7858943E-3,4.7732247E-3,3.684303E-3,6.123958E-3,3.8176063E-3],"categories":[],"categories_nodes":[],"categories_segments":[],"categories_sizes":[],"default_left":[0,0,0,0,0,0,0,0,0,0,0,0,0,0,0,0,0,0,0,0,0,0,0,0,0,0,0,0,0,0,0,0,0,0,0,0,0,0,0,0,0,0,0,0,0,0,0,0,0,0,0,0,0,0,0,0,0,0,0,0,0,0,0,0,0,0,0,0,0,0,0,0,0,0,0,0,0,0,0,0,0,0,0,0,0,0,0,0,0,0,0,0,0,0,0],"id":1,"left_children":[1,3,5,7,9,11,13,15,17,19,21,23,25,27,29,31,33,35,37,39,41,43,45,47,49,51,53,55,57,-1,-1,-1,-1,-1,-1,-1,-1,-1,-1,59,-1,61,-1,63,65,67,69,71,73,-1,75,77,79,81,-1,-1,-1,-1,-1,-1,-1,-1,-1,83,85,-1,-1,-1,-1,-1,-1,-1,87,-1,89,-1,91,93,-1,-1,-1,-1,-1,-1,-1,-1,-1,-1,-1,-1,-1,-1,-1,-1,-1],"loss_changes":[1.00667615E3,1.21168365E2,1.3109521E2,1.6473206E1,1.3499916E1,1.9423294E1,1.765503E1,2.4109192E0,1.7281189E0,1.6384201E0,1.6304317E0,1.8420715E0,2.4878693E0,2.9415588E0,1.8835449E0,1.7108154E-1,3.2209778E-1,1.8972015E-1,1.4091492E-1,1.5653992E-1,2.1800518E-1,4.016317E-1,1.94484E-1,4.012537E-1,2.514305E-1,2.8984833E-1,2.2136688E-1,2.1098328E-1,2.0631409E-1,0E0,0E0,0E0,0E0,0E0,0E0,0E0,0E0,0E0,0E0,2.5929642E-1,0E0,1.4777422E-1,0E0,2.679628E-1,1.0937748E-1,1.95654E-1,1.8545842E-1,3.6040854E-1,5.399933E-1,0E0,4.8236465E-1,1.24536514E-1,1.0210037E-1,1.6897106E-1,0E0,0E0,0E0,0E0,0E0,0E0,0E0,0E0,0E0,2.0362073E-1,2.0264894E-1,0E0,0E0,0E0,0E0,0E0,0E0,0E0,1.4508116E-1,0E0,1.6785264E-1,0E0,1.8677807E-1,1.426444E-1,0E0,0E0,0E0,0E0,0E0,0E0,0E0,0E0,0E0,0E0,0E0,0E0,0E0,0E0,0E0,0E0,0E0],"parents":[2147483647,0,0,1,1,2,2,3,3,4,4,5,5,6,6,7,7,8,8,9,9,10,10,11,11,12,12,13,13,14,14,15,15,16,16,17,17,18,18,19,19,20,20,21,21,22,22,23,23,24,24,25,25,26,26,27,27,28,28,39,39,41,41,43,43,44,44,45,45,46,46,47,47,48,48,50,50,51,51,52,52,53,53,63,63,64,64,72,72,74,74,76,76,77,77],"right_children":[2,4,6,8,10,12,14,16,18,20,22,24,26,28,30,32,34,36,38,40,42,44,46,48,50,52,54,56,58,-1,-1,-1,-1,-1,-1,-1,-1,-1,-1,60,-1,62,-1,64,66,68,70,72,74,-1,76,78,80,82,-1,-1,-1,-1,-1,-1,-1,-1,-1,84,86,-1,-1,-1,-1,-1,-1,-1,88,-1,90,-1,92,94,-1,-1,-1,-1,-1,-1,-1,-1,-1,-1,-1,-1,-1,-1,-1,-1,-1],"split_conditions":[3.338E-1,1.608E-1,5.599E-1,8.44E-2,2.459E-1,4.377E-1,6.945E-1,4.11E-2,1.235E-1,2.001E-1,2.96E-1,3.884E-1,5.075E-1,6.258E-1,7.68E-1,1.85E-2,6.36E-2,9.83E-2,1.393E-1,7.46E0,2.28E-1,9.27E0,8.72E0,8.43E0,7.52E0,4.648E-1,8.68E0,5.975E-1,6.621E-1,1.3736423E-2,1.6176077E-2,-8.362123E-3,-7.7091344E-3,-7.0454013E-3,-6.3729533E-3,-5.806603E-3,-5.1917234E-3,-4.5720995E-3,-4.0088953E-3,6.74E0,-2.6338245E-3,1.04528464E-1,-1.3746658E-3,7.46E0,1.204E1,6.78E0,9.57E0,6.35E0,9.48E0,4.844204E-3,3.8522575E-2,3.4840103E-2,-4.3837115E-1,8.64E0,7.985055E-3,9.013393E-3,1.0038329E-2,1.10329725E-2,1.2166927E-2,-2.9183794E-3,-3.911738E-3,-1.6900714E-3,-2.3719247E-3,2.55E-1,7.22E0,2.881903E-4,1.7151252E-3,1.3709774E-3,3.7402296E-4,2.1057497E-3,9.2321966E-4,3.058976E-3,1.007E1,3.8713606E-3,1.032E1,2.6381873E-3,1.002E1,5.52E0,5.614852E-3,6.7077735E-3,5.9005218E-3,7.530881E-3,5.7154666E-3,-9.874084E-4,8.8073764E-5,-1.7548888E-3,-6.316688E-4,1.7557837E-3,2.4432028E-4,1.5792093E-3,2.7858943E-3,4.7732247E-3,3.684303E-3,6.123958E-3,3.8176063E-3],"split_indices":[5,5,5,5,5,5,5,5,5,5,5,5,5,5,5,5,5,5,5,0,5,0,0,0,7,5,0,5,5,0,0,0,0,0,0,0,0,0,0,7,0,2,0,7,0,7,7,7,7,0,4,4,2,7,0,0,0,0,0,0,0,0,0,5,0,0,0,0,0,0,0,0,7,0,0,0,7,7,0,0,0,0,0,0,0,0,0,0,0,0,0,0,0,0,0],"split_type":[0,0,0,0,0,0,0,0,0,0,0,0,0,0,0,0,0,0,0,0,0,0,0,0,0,0,0,0,0,0,0,0,0,0,0,0,0,0,0,0,0,0,0,0,0,0,0,0,0,0,0,0,0,0,0,0,0,0,0,0,0,0,0,0,0,0,0,0,0,0,0,0,0,0,0,0,0,0,0,0,0,0,0,0,0,0,0,0,0,0,0,0,0,0,0],"sum_hessian":[2.7681E4,1.7912E4,9.769E3,1.0731E4,7.181E3,5.816E3,3.953E3,5.947E3,4.784E3,3.847E3,3.334E3,2.894E3,2.922E3,2.529E3,1.424E3,2.626E3,3.321E3,2.611E3,2.173E3,1.819E3,2.028E3,2.044E3,1.29E3,1.611E3,1.283E3,1.729E3,1.193E3,1.313E3,1.216E3,8.84E2,5.4E2,1.009E3,1.617E3,1.706E3,1.615E3,9.92E2,1.619E3,9.72E2,1.201E3,1.175E3,6.44E2,1.284E3,7.44E2,1.592E3,4.52E2,7.82E2,5.08E2,7.94E2,8.17E2,2.93E2,9.9E2,6.45E2,1.084E3,2.98E2,8.95E2,7.66E2,5.47E2,6.61E2,5.55E2,7.66E2,4.09E2,6.28E2,6.56E2,8.56E2,7.36E2,3.96E2,5.6E1,2.87E2,4.95E2,2.5E2,2.58E2,2.11E2,5.83E2,3.45E2,4.72E2,2.73E2,7.17E2,1.71E2,4.74E2,4.19E2,6.65E2,1.76E2,1.22E2,2.07E2,6.49E2,2.08E2,5.28E2,5.13E2,7E1,2.06E2,2.66E2,3.19E2,3.98E2,4.3E1,1.28E2],"tree_param":{"num_deleted":"0","num_feature":"9","num_nodes":"95","size_leaf_vector":"1"}},{"base_weights":[9.362466E-5,-1.3548003E-1,2.504712E-1,-2.018896E-1,-3.93949E-2,1.6143413E-1,3.903949E-1,-2.3789589E-1,-1.6242595E-1,-7.702909E-2,8.240773E-3,1.0671737E-1,2.2238457E-1,3.403656E-1,4.7473708E-1,-2.5771227E-1,-2.1989182E-1,-1.8093942E-1,-1.4171396E-1,-9.730941E-2,-5.438539E-2,-8.876252E-3,3.423415E-2,7.882309E-2,1.3641323E-1,1.9576415E-1,2.5265133E-1,3.0748078E-1,3.7252232E-1,1.3358567E-2,1.5661592E-2,-8.12571E-3,-7.475042E-3,-6.8386877E-3,-6.2461784E-3,-5.721473E-3,-5.1030284E-3,-4.530556E-3,-3.9108265E-3,-3.257191E-3,-2.5652845E-3,-6.441045E-2,-1.3126E-3,-1.6068345E-2,1.4574562E-2,1.7347679E-2,1.2958233E-3,6.396591E-2,9.3080975E-2,1.1744586E-1,1.4751166E-1,5.584573E-3,2.1291257E-1,6.818327E-3,7.814608E-3,8.788262E-3,9.722177E-3,1.0669178E-2,1.175586E-2,-2.193568E-3,-1.4974312E-3,-5.339838E-3,-8.052892E-4,2.515406E-4,1.72526E-3,1.5158139E-3,2.66685E-4,2.4337152E-3,1.5481948E-3,3.309693E-3,2.4984688E-3,4.239395E-3,1.0444933E-1,3.8680448E-3,4.793921E-3,5.8832956E-3,7.0611285E-3,-4.646639E-4,3.4907844E-4,1.7815597E-3,3.398015E-3],"categories":[],"categories_nodes":[],"categories_segments":[],"categories_sizes":[],"default_left":[0,0,0,0,0,0,0,0,0,0,0,0,0,0,0,0,0,0,0,0,0,0,0,0,0,0,0,0,0,0,0,0,0,0,0,0,0,0,0,0,0,0,0,0,0,0,0,0,0,0,0,0,0,0,0,0,0,0,0,0,0,0,0,0,0,0,0,0,0,0,0,0,0,0,0,0,0,0,0,0,0],"id":2,"left_children":[1,3,5,7,9,11,13,15,17,19,21,23,25,27,29,31,33,35,37,39,41,43,45,47,49,51,53,55,57,-1,-1,-1,-1,-1,-1,-1,-1,-1,-1,-1,-1,59,-1,61,63,65,-1,67,69,71,73,-1,75,-1,-1,-1,-1,-1,-1,-1,-1,77,-1,-1,-1,-1,-1,-1,-1,-1,-1,-1,79,-1,-1,-1,-1,-1,-1,-1,-1],"loss_changes":[9.368487E2,1.1421286E2,1.2066589E2,1.4963379E1,1.3128504E1,1.9709976E1,1.5660522E1,1.8692322E0,1.8804321E0,1.8577538E0,1.4399614E0,2.557129E0,2.1632996E0,2.323639E0,1.6217651E0,1.7532349E-1,1.8296814E-1,2.1365356E-1,2.049675E-1,2.5759697E-1,1.9282436E-1,3.2859677E-1,1.8761957E-1,3.206625E-1,2.7425766E-1,1.67202E-1,1.5168E-1,1.2776947E-1,1.7510986E-1,0E0,0E0,0E0,0E0,0E0,0E0,0E0,0E0,0E0,0E0,0E0,0E0,1.0902357E-1,0E0,1.6922271E-1,1.1358205E-1,1.2017679E-1,0E0,1.5176606E-1,1.0982132E-1,1.3623238E-1,1.6642761E-1,0E0,1.0956383E-1,0E0,0E0,0E0,0E0,0E0,0E0,0E0,0E0,1.3046958E-1,0E0,0E0,0E0,0E0,0E0,0E0,0E0,0E0,0E0,0E0,1.2422609E-1,0E0,0E0,0E0,0E0,0E0,0E0,0E0,0E0],"parents":[2147483647,0,0,1,1,2,2,3,3,4,4,5,5,6,6,7,7,8,8,9,9,10,10,11,11,12,12,13,13,14,14,15,15,16,16,17,17,18,18,19,19,20,20,21,21,22,22,23,23,24,24,25,25,26,26,27,27,28,28,41,41,43,43,44,44,45,45,47,47,48,48,49,49,50,50,52,52,61,61,72,72],"right_children":[2,4,6,8,10,12,14,16,18,20,22,24,26,28,30,32,34,36,38,40,42,44,46,48,50,52,54,56,58,-1,-1,-1,-1,-1,-1,-1,-1,-1,-1,-1,-1,60,-1,62,64,66,-1,68,70,72,74,-1,76,-1,-1,-1,-1,-1,-1,-1,-1,78,-1,-1,-1,-1,-1,-1,-1,-1,-1,-1,80,-1,-1,-1,-1,-1,-1,-1,-1],"split_conditions":[3.338E-1,1.588E-1,5.65E-1,7.86E-2,2.483E-1,4.466E-1,6.945E-1,4.11E-2,1.18E-1,2.055E-1,2.96E-1,3.884E-1,5.075E-1,6.258E-1,7.68E-1,1.85E-2,6.36E-2,9.83E-2,1.393E-1,1.819E-1,7.43E0,9.19E0,2.5785364E-2,8.43E0,3.8522575E-2,4.85E-1,8.68E0,5.975E-1,6.621E-1,1.3358567E-2,1.5661592E-2,-8.12571E-3,-7.475042E-3,-6.8386877E-3,-6.2461784E-3,-5.721473E-3,-5.1030284E-3,-4.530556E-3,-3.9108265E-3,-3.257191E-3,-2.5652845E-3,2.303E-1,-1.3126E-3,2.2495106E-1,1.204E1,3.7033334E0,1.2958233E-3,-1.8369701E-16,-3.2556817E-1,6.53E0,4.132E-1,5.584573E-3,1.026E1,6.818327E-3,7.814608E-3,8.788262E-3,9.722177E-3,1.0669178E-2,1.175586E-2,-2.193568E-3,-1.4974312E-3,2.773E-1,-8.052892E-4,2.515406E-4,1.72526E-3,1.5158139E-3,2.66685E-4,2.4337152E-3,1.5481948E-3,3.309693E-3,2.4984688E-3,4.239395E-3,6.74E0,3.8680448E-3,4.793921E-3,5.8832956E-3,7.0611285E-3,-4.646639E-4,3.4907844E-4,1.7815597E-3,3.398015E-3],"split_indices":[5,5,5,5,5,5,5,5,5,5,5,5,5,5,5,5,5,5,5,5,0,0,4,0,4,5,0,5,5,0,0,0,0,0,0,0,0,0,0,0,0,5,0,2,0,8,0,2,2,6,5,0,0,0,0,0,0,0,0,0,0,5,0,0,0,0,0,0,0,0,0,0,0,0,0,0,0,0,0,0,0],"split_type":[0,0,0,0,0,0,0,0,0,0,0,0,0,0,0,0,0,0,0,0,0,0,0,0,0,0,0,0,0,0,0,0,0,0,0,0,0,0,0,0,0,0,0,0,0,0,0,0,0,0,0,0,0,0,0,0,0,0,0,0,0,0,0,0,0,0,0,0,0,0,0,0,0,0,0,0,0,0,0,0,0],"sum_hessian":[2.7597E4,1.7903E4,9.694E3,1.0585E4,7.318E3,5.926E3,3.768E3,5.531E3,5.054E3,4.089E3,3.229E3,3.125E3,2.801E3,2.369E3,1.399E3,2.624E3,2.907E3,2.662E3,2.392E3,2.153E3,1.936E3,1.945E3,1.284E3,1.615E3,1.51E3,1.496E3,1.305E3,1.178E3,1.191E3,8.7E2,5.29E2,1.017E3,1.607E3,1.704E3,1.203E3,1.386E3,1.276E3,1.303E3,1.089E3,1.093E3,1.06E3,9.89E2,9.47E2,1.492E3,4.53E2,4.5E2,8.34E2,7.97E2,8.18E2,5.65E2,9.45E2,9.7E2,5.26E2,3.18E2,9.87E2,6.41E2,5.37E2,6.49E2,5.42E2,6.11E2,3.78E2,7.53E2,7.39E2,3.99E2,5.4E1,8.8E1,3.62E2,3.28E2,4.69E2,2.89E2,5.29E2,1.93E2,3.72E2,3.84E2,5.61E2,3.09E2,2.17E2,4.75E2,2.78E2,6.4E1,3.08E2],"tree_param":{"num_deleted":"0","num_feature":"9","num_nodes":"81","size_leaf_vector":"1"}},{"base_weights":[-4.589899E-4,-1.3174134E-1,2.4207644E-1,-1.9529463E-1,-3.6614016E-2,1.489731E-1,3.692932E-1,-2.2814937E-1,-1.5363291E-1,-7.009576E-2,1.26631195E-2,9.919116E-2,2.0327897E-1,3.1063572E-1,4.4236517E-1,-2.4718148E-1,-2.0800802E-1,-1.6994725E-1,-1.3396671E-1,-9.3286216E-2,-4.9559236E-2,-4.185806E-3,3.3742987E-2,7.234619E-2,1.24179736E-1,1.7910695E-1,2.2930734E-1,8.473552E-3,3.414405E-1,4.0747645E-1,4.920935E-1,-7.766683E-3,-7.0918845E-3,-6.5470645E-3,-5.98621E-3,-5.450992E-3,-4.8808833E-3,-4.308536E-3,-3.7738187E-3,-3.1518494E-3,-2.4769353E-3,-5.877072E-2,-1.115133E-3,-1.7801218E-2,8.734158E-3,1.7695252E-2,4.207387E-2,5.7057172E-2,8.722078E-2,4.589967E-3,1.15460366E-1,1.5530267E-1,1.8652093E-1,2.1520741E-1,7.368597E-3,9.219269E-3,1.047201E-2,1.16300685E-2,1.2780633E-2,1.4178671E-2,1.616637E-2,-1.4163029E-3,-6.9302194E-2,9.9195015E-5,-1.0550249E-3,8.6443726E-4,-1.885048E-3,1.1267995E-3,-3.3344546E-5,1.6387111E-3,2.316395E-2,2.5913005E-3,1.2466025E-3,3.3692538E-3,6.740883E-2,7.965473E-2,1.2937927E-1,6.0006077E-3,3.924179E-3,6.0892813E-3,1.7244549E-1,6.98996E-3,5.8326405E-3,-2.1691557E-3,-3.9565493E-4,-1.8945233E-4,1.7655283E-3,8.649791E-5,1.2512328E-3,9.0973004E-4,2.3728628E-3,2.8283552E-3,1.3179306E-3,4.532517E-3,3.3405414E-3,4.160255E-3,5.544028E-3],"categories":[],"categories_nodes":[],"categories_segments":[],"categories_sizes":[],"default_left":[0,0,0,0,0,0,0,0,0,0,0,0,0,0,0,0,0,0,0,0,0,0,0,0,0,0,0,0,0,0,0,0,0,0,0,0,0,0,0,0,0,0,0,0,0,0,0,0,0,0,0,0,0,0,0,0,0,0,0,0,0,0,0,0,0,0,0,0,0,0,0,0,0,0,0,0,0,0,0,0,0,0,0,0,0,0,0,0,0,0,0,0,0,0,0,0,0],"id":3,"left_children":[1,3,5,7,9,11,13,15,17,19,21,23,25,27,29,31,33,35,37,39,41,43,45,47,49,51,53,-1,55,57,59,-1,-1,-1,-1,-1,-1,-1,-1,-1,-1,61,-1,63,65,67,69,71,73,-1,75,77,79,81,-1,-1,-1,-1,-1,-1,-1,-1,83,-1,-1,-1,85,-1,-1,-1,87,-1,-1,-1,89,91,93,-1,-1,-1,95,-1,-1,-1,-1,-1,-1,-1,-1,-1,-1,-1,-1,-1,-1,-1,-1],"loss_changes":[8.7818524E2,1.0815662E2,1.1461713E2,1.4609772E1,1.1834654E1,1.5075394E1,1.7326477E1,2.2007446E0,1.4657059E0,2.0146866E0,1.0330989E0,1.9314957E0,1.6004562E0,1.8154602E0,2.8654175E0,2.774353E-1,1.6764069E-1,1.5594482E-1,1.2489319E-1,2.2532082E-1,2.4714422E-1,2.842783E-1,1.6587472E-1,3.019371E-1,3.3493042E-1,1.8269348E-1,1.9593048E-1,0E0,1.0822296E-1,1.4871216E-1,3.219452E-1,0E0,0E0,0E0,0E0,0E0,0E0,0E0,0E0,0E0,0E0,1.4274359E-1,0E0,2.921537E-1,1.7824222E-1,1.7068166E-1,1.9148827E-1,3.0317497E-1,3.2784986E-1,0E0,5.4989433E-1,3.132019E-1,1.7157745E-1,1.7045593E-1,0E0,0E0,0E0,0E0,0E0,0E0,0E0,0E0,1.03566885E-1,0E0,0E0,0E0,1.3933544E-1,0E0,0E0,0E0,1.2404044E-1,0E0,0E0,0E0,1.6088295E-1,1.5495682E-1,2.8405E-1,0E0,0E0,0E0,1.831913E-1,0E0,0E0,0E0,0E0,0E0,0E0,0E0,0E0,0E0,0E0,0E0,0E0,0E0,0E0,0E0,0E0],"parents":[2147483647,0,0,1,1,2,2,3,3,4,4,5,5,6,6,7,7,8,8,9,9,10,10,11,11,12,12,13,13,14,14,15,15,16,16,17,17,18,18,19,19,20,20,21,21,22,22,23,23,24,24,25,25,26,26,28,28,29,29,30,30,41,41,43,43,44,44,45,45,46,46,47,47,48,48,50,50,51,51,52,52,53,53,62,62,66,66,70,70,74,74,75,75,76,76,80,80],"right_children":[2,4,6,8,10,12,14,16,18,20,22,24,26,28,30,32,34,36,38,40,42,44,46,48,50,52,54,-1,56,58,60,-1,-1,-1,-1,-1,-1,-1,-1,-1,-1,62,-1,64,66,68,70,72,74,-1,76,78,80,82,-1,-1,-1,-1,-1,-1,-1,-1,84,-1,-1,-1,86,-1,-1,-1,88,-1,-1,-1,90,92,94,-1,-1,-1,96,-1,-1,-1,-1,-1,-1,-1,-1,-1,-1,-1,-1,-1,-1,-1,-1],"split_conditions":[3.338E-1,1.608E-1,5.501E-1,8.44E-2,2.55E-1,4.377E-1,6.676E-1,4.64E-2,1.235E-1,2.055E-1,2.96E-1,3.796E-1,4.937E-1,6.08E-1,7.456E-1,2.52E-2,6.36E-2,9.83E-2,1.393E-1,1.819E-1,2.325E-1,7.82E0,2.5785364E-2,8.43E0,7.52E0,3.5337377E-2,1.032E1,8.473552E-3,5.641549E-2,7.031E-1,8.144E-1,-7.766683E-3,-7.0918845E-3,-6.5470645E-3,-5.98621E-3,-5.450992E-3,-4.8808833E-3,-4.308536E-3,-3.7738187E-3,-3.1518494E-3,-2.4769353E-3,3.4899496E-2,-1.115133E-3,6.53E0,8.3E0,6.74E0,9.39E0,6.88E0,9.51E0,4.589967E-3,3.9011154E-2,6.43E0,1.017E1,9.11E0,7.368597E-3,9.219269E-3,1.047201E-2,1.16300685E-2,1.2780633E-2,1.4178671E-2,1.616637E-2,-1.4163029E-3,1.063E1,9.9195015E-5,-1.0550249E-3,8.6443726E-4,1.22E1,1.1267995E-3,-3.3344546E-5,1.6387111E-3,1.017E1,2.5913005E-3,1.2466025E-3,3.3692538E-3,9.57E0,9.22E0,1.002E1,6.0006077E-3,3.924179E-3,6.0892813E-3,1.063E1,6.98996E-3,5.8326405E-3,-2.1691557E-3,-3.9565493E-4,-1.8945233E-4,1.7655283E-3,8.649791E-5,1.2512328E-3,9.0973004E-4,2.3728628E-3,2.8283552E-3,1.3179306E-3,4.532517E-3,3.3405414E-3,4.160255E-3,5.544028E-3],"split_indices":[5,5,5,5,5,5,5,5,5,5,5,5,5,5,5,5,5,5,5,5,5,0,4,0,7,4,0,0,4,5,5,0,0,0,0,0,0,0,0,0,0,2,0,7,7,7,7,7,7,0,4,7,7,7,0,0,0,0,0,0,0,0,0,0,0,0,0,0,0,0,0,0,0,0,0,7,7,0,0,0,0,0,0,0,0,0,0,0,0,0,0,0,0,0,0,0,0],"split_type":[0,0,0,0,0,0,0,0,0,0,0,0,0,0,0,0,0,0,0,0,0,0,0,0,0,0,0,0,0,0,0,0,0,0,0,0,0,0,0,0,0,0,0,0,0,0,0,0,0,0,0,0,0,0,0,0,0,0,0,0,0,0,0,0,0,0,0,0,0,0,0,0,0,0,0,0,0,0,0,0,0,0,0,0,0,0,0,0,0,0,0,0,0,0,0,0,0],"sum_hessian":[2.7579E4,1.7894E4,9.685E3,1.0726E4,7.168E3,5.594E3,4.091E3,5.993E3,4.733E3,4.269E3,2.899E3,2.921E3,2.673E3,2.273E3,1.818E3,3.073E3,2.92E3,2.58E3,2.153E3,2.001E3,2.268E3,1.609E3,1.29E3,1.412E3,1.509E3,1.392E3,1.281E3,1.194E3,1.079E3,1.075E3,7.43E2,1.458E3,1.615E3,1.306E3,1.614E3,9.7E2,1.61E3,9.74E2,1.179E3,9.45E2,1.056E3,1.294E3,9.74E2,7.87E2,8.22E2,4.46E2,8.44E2,7.02E2,7.1E2,3.44E2,1.165E3,3.39E2,1.053E3,6.98E2,5.83E2,2.07E2,8.72E2,5.33E2,5.42E2,5.34E2,2.09E2,6.24E2,6.7E2,3.53E2,4.34E2,2.87E2,5.35E2,2.19E2,2.27E2,5.03E2,3.41E2,2.39E2,4.63E2,3.09E2,4.01E2,3.3E2,8.35E2,1.16E2,2.23E2,4.76E2,5.77E2,3.68E2,3.3E2,6.34E2,3.6E1,5.01E2,3.4E1,1.66E2,1.75E2,9.9E1,3.02E2,2.31E2,9.9E1,3.73E2,4.62E2,1.6E2,4.17E2],"tree_param":{"num_deleted":"0","num_feature":"9","num_nodes":"97","size_leaf_vector":"1"}},{"base_weights":[2.0585852E-5,-1.2733091E-1,2.3549366E-1,-1.8936521E-1,-3.516979E-2,1.4064835E-1,3.5388967E-1,-2.2117867E-1,-1.4905359E-1,-6.791384E-2,1.2510955E-2,9.21492E-2,1.8916625E-1,2.979249E-1,4.290861E-1,-2.3982458E-1,-2.0146199E-1,-1.6506815E-1,-1.295652E-1,-9.053218E-2,-4.7446318E-2,-3.6540714E-3,3.2956064E-2,7.087743E-2,1.1494804E-1,1.7006172E-1,2.1770465E-1,2.7203158E-1,9.931181E-3,3.9545575E-1,4.773151E-1,-7.617098E-3,-6.942557E-3,-6.32807E-3,-5.777446E-3,-5.281252E-3,-4.7475356E-3,-4.177803E-3,-3.6467905E-3,-9.871858E-2,-7.5547054E-2,-5.9789054E-2,-3.5732478E-2,-1.6869131E-2,9.000451E-3,2.213252E-2,4.4505518E-2,5.5162054E-2,8.3399385E-2,9.873696E-2,1.2726182E-1,4.589237E-3,5.43489E-3,2.0402117E-1,7.0138504E-3,7.6886653E-3,8.5499305E-3,1.1174102E-2,1.231424E-2,1.3700483E-2,1.582272E-2,-2.5558237E-3,-3.4508745E-3,-1.8334285E-3,-2.6884044E-3,-6.992324E-2,-4.8957102E-2,-5.052461E-2,-2.7090184E-2,3.3781712E-4,-8.840937E-4,8.9454296E-4,-2.5460676E-3,9.249404E-4,-3.3837228E-4,1.7729618E-3,8.207891E-4,2.5691644E-3,1.1561504E-3,3.2068298E-3,6.215045E-2,3.9205328E-3,7.640956E-2,4.607182E-3,1.093034E-1,6.6471747E-3,5.507297E-3,-1.572815E-3,-2.4716763E-3,-6.5108895E-4,-1.7904579E-3,-8.3206705E-4,-2.097299E-3,-3.993115E-4,-1.1708855E-3,-6.238042E-4,2.5583056E-4,9.2370174E-4,2.3483625E-3,2.5472478E-3,9.380539E-4,2.2474688E-3,3.7396005E-3],"categories":[],"categories_nodes":[],"categories_segments":[],"categories_sizes":[],"default_left":[0,0,0,0,0,0,0,0,0,0,0,0,0,0,0,0,0,0,0,0,0,0,0,0,0,0,0,0,0,0,0,0,0,0,0,0,0,0,0,0,0,0,0,0,0,0,0,0,0,0,0,0,0,0,0,0,0,0,0,0,0,0,0,0,0,0,0,0,0,0,0,0,0,0,0,0,0,0,0,0,0,0,0,0,0,0,0,0,0,0,0,0,0,0,0,0,0,0,0,0,0,0,0],"id":4,"left_children":[1,3,5,7,9,11,13,15,17,19,21,23,25,27,29,31,33,35,37,39,41,43,45,47,49,51,53,55,-1,57,59,-1,-1,-1,-1,-1,-1,-1,-1,61,63,65,67,69,71,73,75,77,79,81,83,-1,-1,85,-1,-1,-1,-1,-1,-1,-1,-1,-1,-1,-1,87,89,91,93,-1,-1,-1,95,-1,-1,-1,-1,-1,-1,-1,97,-1,99,-1,101,-1,-1,-1,-1,-1,-1,-1,-1,-1,-1,-1,-1,-1,-1,-1,-1,-1,-1],"loss_changes":[8.267457E2,1.02262146E2,1.0856677E2,1.364328E1,1.1247468E1,1.2602211E1,1.790802E1,2.1034546E0,1.4225616E0,1.958664E0,9.717337E-1,1.2783298E0,1.3880997E0,1.9683685E0,2.6970215E0,2.5508118E-1,1.640091E-1,1.3208008E-1,1.2284851E-1,2.2353172E-1,3.1303978E-1,2.7436018E-1,1.5448391E-1,2.5645494E-1,2.233429E-1,2.45224E-1,1.4432526E-1,1.5737915E-1,0E0,1.4408875E-1,4.3302917E-1,0E0,0E0,0E0,0E0,0E0,0E0,0E0,0E0,2.5738907E-1,1.2643528E-1,1.04121685E-1,1.3903403E-1,2.871328E-1,2.0279208E-1,1.9877675E-1,1.4536989E-1,3.0143654E-1,3.6186743E-1,3.737483E-1,3.0138016E-1,0E0,0E0,1.3051605E-1,0E0,0E0,0E0,0E0,0E0,0E0,0E0,0E0,0E0,0E0,0E0,1.03247404E-1,1.4665246E-1,1.7472494E-1,1.1566353E-1,0E0,0E0,0E0,1.0910576E-1,0E0,0E0,0E0,0E0,0E0,0E0,0E0,1.9405663E-1,0E0,1.1539793E-1,0E0,2.0243073E-1,0E0,0E0,0E0,0E0,0E0,0E0,0E0,0E0,0E0,0E0,0E0,0E0,0E0,0E0,0E0,0E0,0E0,0E0],"parents":[2147483647,0,0,1,1,2,2,3,3,4,4,5,5,6,6,7,7,8,8,9,9,10,10,11,11,12,12,13,13,14,14,15,15,16,16,17,17,18,18,19,19,20,20,21,21,22,22,23,23,24,24,25,25,26,26,27,27,29,29,30,30,39,39,40,40,41,41,42,42,43,43,44,44,45,45,46,46,47,47,48,48,49,49,50,50,53,53,65,65,66,66,67,67,68,68,72,72,80,80,82,82,84,84],"right_children":[2,4,6,8,10,12,14,16,18,20,22,24,26,28,30,32,34,36,38,40,42,44,46,48,50,52,54,56,-1,58,60,-1,-1,-1,-1,-1,-1,-1,-1,62,64,66,68,70,72,74,76,78,80,82,84,-1,-1,86,-1,-1,-1,-1,-1,-1,-1,-1,-1,-1,-1,88,90,92,94,-1,-1,-1,96,-1,-1,-1,-1,-1,-1,-1,98,-1,100,-1,102,-1,-1,-1,-1,-1,-1,-1,-1,-1,-1,-1,-1,-1,-1,-1,-1,-1,-1],"split_conditions":[3.338E-1,1.608E-1,5.412E-1,8.44E-2,2.55E-1,4.296E-1,6.676E-1,4.64E-2,1.235E-1,2.055E-1,2.96E-1,3.796E-1,4.937E-1,6.08E-1,7.456E-1,2E-2,6.5E-2,9.83E-2,1.393E-1,7.56E0,2.28E-1,7.82E0,8.34E0,3.5337377E-2,8.72E0,4.558E-1,1.032E1,5.703E-1,9.931181E-3,6.945E-1,8.144E-1,-7.617098E-3,-6.942557E-3,-6.32807E-3,-5.777446E-3,-5.281252E-3,-4.7475356E-3,-4.177803E-3,-3.6467905E-3,6.4E0,8.3E0,7.4E0,1.9968964E-2,5.73E0,8.3E0,8.8E0,9.57E0,6.67E0,9.51E0,7.52E0,9.65E0,4.589237E-3,5.43489E-3,9.11E0,7.0138504E-3,7.6886653E-3,8.5499305E-3,1.1174102E-2,1.231424E-2,1.3700483E-2,1.582272E-2,-2.5558237E-3,-3.4508745E-3,-1.8334285E-3,-2.6884044E-3,5.87E0,7.56E0,5.41E0,8.1E0,3.3781712E-4,-8.840937E-4,8.9454296E-4,9.15E0,9.249404E-4,-3.3837228E-4,1.7729618E-3,8.207891E-4,2.5691644E-3,1.1561504E-3,3.2068298E-3,9.8E0,3.9205328E-3,9.94E0,4.607182E-3,1.026E1,6.6471747E-3,5.507297E-3,-1.572815E-3,-2.4716763E-3,-6.5108895E-4,-1.7904579E-3,-8.3206705E-4,-2.097299E-3,-3.993115E-4,-1.1708855E-3,-6.238042E-4,2.5583056E-4,9.2370174E-4,2.3483625E-3,2.5472478E-3,9.380539E-4,2.2474688E-3,3.7396005E-3],"split_indices":[5,5,5,5,5,5,5,5,5,5,5,5,5,5,5,5,5,5,5,0,5,0,0,4,0,5,0,5,0,5,5,0,0,0,0,0,0,0,0,7,7,0,4,7,7,7,7,7,7,7,7,0,0,7,0,0,0,0,0,0,0,0,0,0,0,7,7,7,7,0,0,0,0,0,0,0,0,0,0,0,0,0,7,0,0,0,0,0,0,0,0,0,0,0,0,0,0,0,0,0,0,0,0],"split_type":[0,0,0,0,0,0,0,0,0,0,0,0,0,0,0,0,0,0,0,0,0,0,0,0,0,0,0,0,0,0,0,0,0,0,0,0,0,0,0,0,0,0,0,0,0,0,0,0,0,0,0,0,0,0,0,0,0,0,0,0,0,0,0,0,0,0,0,0,0,0,0,0,0,0,0,0,0,0,0,0,0,0,0,0,0,0,0,0,0,0,0,0,0,0,0,0,0,0,0,0,0,0,0],"sum_hessian":[2.7567E4,1.7891E4,9.676E3,1.0692E4,7.199E3,5.374E3,4.302E3,5.972E3,4.72E3,4.269E3,2.93E3,2.69E3,2.684E3,2.47E3,1.832E3,3.061E3,2.911E3,2.584E3,2.136E3,2.024E3,2.245E3,1.634E3,1.296E3,1.396E3,1.294E3,1.614E3,1.07E3,1.393E3,1.077E3,1.086E3,7.46E2,1.129E3,1.932E3,1.392E3,1.519E3,9.75E2,1.609E3,9.53E2,1.183E3,1.301E3,7.23E2,1.087E3,1.158E3,8.03E2,8.31E2,6.75E2,6.21E2,6.25E2,7.71E2,5.66E2,7.28E2,6.45E2,9.69E2,5.89E2,4.81E2,6.42E2,7.51E2,4.42E2,6.44E2,5.37E2,2.09E2,7.18E2,5.83E2,3.63E2,3.6E2,5.54E2,5.33E2,4.21E2,7.37E2,2.46E2,5.57E2,2.99E2,5.32E2,5.38E2,1.37E2,3.31E2,2.9E2,2.17E2,4.08E2,3.62E2,4.09E2,2.29E2,3.37E2,2.9E2,4.38E2,3.09E2,2.8E2,2.36E2,3.18E2,1.54E2,3.79E2,1.97E2,2.24E2,3.47E2,3.9E2,2.04E2,3.28E2,1.42E2,2.67E2,2.81E2,5.6E1,1.39E2,2.99E2],"tree_param":{"num_deleted":"0","num_feature":"9","num_nodes":"103","size_leaf_vector":"1"}},{"base_weights":[-1.3730695E-4,-1.238153E-1,2.2908832E-1,-1.8370894E-1,-3.431351E-2,1.4656706E-1,3.5651907E-1,-2.1714899E-1,-1.4780825E-1,-6.67533E-2,1.1032859E-2,9.30954E-2,1.9768214E-1,3.1103998E-1,4.3297917E-1,-2.3580095E-1,-2.0129915E-1,-1.6551432E-1,-1.2840068E-1,-8.9579076E-2,-4.902693E-2,-4.428694E-3,3.1934973E-2,6.947421E-2,1.15496695E-1,1.735407E-1,2.2950982E-1,2.8160012E-1,3.4065443E-1,1.212816E-2,1.4321023E-2,-7.416444E-3,-6.8383412E-3,-6.3907397E-3,-5.8097932E-3,-5.2276496E-3,-4.6708626E-3,-4.1166167E-3,-3.5471234E-3,-2.9554483E-3,-2.3714025E-3,-5.8279745E-2,-1.0705794E-3,-1.1698449E-2,1.748023E-2,6.675033E-4,1.3499509E-3,5.4540403E-2,8.379332E-2,4.509638E-3,1.09517656E-1,1.6117683E-1,5.6618853E-3,2.0258941E-1,2.3779911E-1,8.04506E-3,8.905297E-3,9.764921E-3,1.0742617E-2,-6.998648E-2,-4.794213E-2,3.398268E-3,-2.7818711E-2,1.467125E-3,2.5217643E-4,2.4724703E-3,4.017868E-2,3.210782E-3,6.4349286E-2,8.084603E-2,1.22615434E-1,5.1662386E-3,4.33324E-3,7.3477663E-3,5.3222505E-3,7.6450016E-3,2.2422579E-1,-1.5882206E-3,-2.5394466E-3,-7.156506E-4,-1.7786191E-3,-1.4978128E-4,6.6328363E-4,-1.6626607E-3,-5.2956736E-4,1.3933189E-3,-0E0,8.833368E-4,2.2605106E-3,2.781714E-3,1.2130013E-3,4.3625925E-3,3.2183276E-3,5.716125E-3,7.1263416E-3],"categories":[],"categories_nodes":[],"categories_segments":[],"categories_sizes":[],"default_left":[0,0,0,0,0,0,0,0,0,0,0,0,0,0,0,0,0,0,0,0,0,0,0,0,0,0,0,0,0,0,0,0,0,0,0,0,0,0,0,0,0,0,0,0,0,0,0,0,0,0,0,0,0,0,0,0,0,0,0,0,0,0,0,0,0,0,0,0,0,0,0,0,0,0,0,0,0,0,0,0,0,0,0,0,0,0,0,0,0,0,0,0,0,0,0],"id":5,"left_children":[1,3,5,7,9,11,13,15,17,19,21,23,25,27,29,31,33,35,37,39,41,43,45,47,49,51,53,55,57,-1,-1,-1,-1,-1,-1,-1,-1,-1,-1,-1,-1,59,-1,61,63,-1,-1,65,67,-1,69,71,-1,73,75,-1,-1,-1,-1,77,79,81,83,-1,-1,-1,85,-1,87,89,91,-1,-1,-1,-1,-1,93,-1,-1,-1,-1,-1,-1,-1,-1,-1,-1,-1,-1,-1,-1,-1,-1,-1,-1],"loss_changes":[7.846086E2,9.63392E1,1.0188968E2,1.2859833E1,1.0610939E1,1.6048386E1,1.304306E1,1.5560913E0,1.7355499E0,1.6827621E0,9.743686E-1,1.4979458E0,2.2318878E0,1.9290161E0,1.5257568E0,1.2486267E-1,1.8876648E-1,1.7263031E-1,1.8116379E-1,1.4706421E-1,2.8120327E-1,2.7453065E-1,1.5434241E-1,2.8246784E-1,2.6467323E-1,2.5702667E-1,1.9631958E-1,1.1122131E-1,1.287384E-1,0E0,0E0,0E0,0E0,0E0,0E0,0E0,0E0,0E0,0E0,0E0,0E0,1.5355349E-1,0E0,3.189085E-1,1.1561772E-1,0E0,0E0,2.626636E-1,2.980652E-1,0E0,4.447918E-1,1.2013435E-1,0E0,2.4906063E-1,1.2154007E-1,0E0,0E0,0E0,0E0,1.4345837E-1,1.9467926E-1,1.0685851E-1,1.6907123E-1,0E0,0E0,0E0,1.1754078E-1,0E0,1.3820958E-1,1.7590046E-1,2.613306E-1,0E0,0E0,0E0,0E0,0E0,1.6185379E-1,0E0,0E0,0E0,0E0,0E0,0E0,0E0,0E0,0E0,0E0,0E0,0E0,0E0,0E0,0E0,0E0,0E0,0E0],"parents":[2147483647,0,0,1,1,2,2,3,3,4,4,5,5,6,6,7,7,8,8,9,9,10,10,11,11,12,12,13,13,14,14,15,15,16,16,17,17,18,18,19,19,20,20,21,21,22,22,23,23,24,24,25,25,26,26,27,27,28,28,41,41,43,43,44,44,47,47,48,48,50,50,51,51,53,53,54,54,59,59,60,60,61,61,62,62,66,66,68,68,69,69,70,70,76,76],"right_children":[2,4,6,8,10,12,14,16,18,20,22,24,26,28,30,32,34,36,38,40,42,44,46,48,50,52,54,56,58,-1,-1,-1,-1,-1,-1,-1,-1,-1,-1,-1,-1,60,-1,62,64,-1,-1,66,68,-1,70,72,-1,74,76,-1,-1,-1,-1,78,80,82,84,-1,-1,-1,86,-1,88,90,92,-1,-1,-1,-1,-1,94,-1,-1,-1,-1,-1,-1,-1,-1,-1,-1,-1,-1,-1,-1,-1,-1,-1,-1],"split_conditions":[3.338E-1,1.608E-1,5.65E-1,7.86E-2,2.525E-1,4.377E-1,6.945E-1,3.97E-2,1.18E-1,2.001E-1,2.96E-1,3.796E-1,5.075E-1,6.258E-1,7.68E-1,1.85E-2,5.48E-2,9.83E-2,1.393E-1,1.819E-1,2.303E-1,9.19E0,3.177E-1,8.43E0,6.56E0,4.775E-1,8.68E0,5.975E-1,6.621E-1,1.212816E-2,1.4321023E-2,-7.416444E-3,-6.8383412E-3,-6.3907397E-3,-5.8097932E-3,-5.2276496E-3,-4.6708626E-3,-4.1166167E-3,-3.5471234E-3,-2.9554483E-3,-2.3714025E-3,7.2E0,-1.0705794E-3,7.46E0,8.3E0,6.675033E-4,1.3499509E-3,6.88E0,9.51E0,4.509638E-3,8.47E0,3.9073113E-1,5.6618853E-3,7.43E0,1.068E1,8.04506E-3,8.905297E-3,9.764921E-3,1.0742617E-2,5.82E0,7.56E0,7.32E0,6.94E0,1.467125E-3,2.5217643E-4,2.4724703E-3,1.007E1,3.210782E-3,9.57E0,9.27E0,9.65E0,5.1662386E-3,4.33324E-3,7.3477663E-3,5.3222505E-3,7.6450016E-3,1.111E1,-1.5882206E-3,-2.5394466E-3,-7.156506E-4,-1.7786191E-3,-1.4978128E-4,6.6328363E-4,-1.6626607E-3,-5.2956736E-4,1.3933189E-3,-0E0,8.833368E-4,2.2605106E-3,2.781714E-3,1.2130013E-3,4.3625925E-3,3.2183276E-3,5.716125E-3,7.1263416E-3],"split_indices":[5,5,5,5,5,5,5,5,5,5,5,5,5,5,5,5,5,5,5,5,5,0,5,0,7,5,0,5,5,0,0,0,0,0,0,0,0,0,0,0,0,0,0,7,7,0,0,7,7,0,0,2,0,7,7,0,0,0,0,7,7,0,0,0,0,0,7,0,0,7,7,0,0,0,0,0,0,0,0,0,0,0,0,0,0,0,0,0,0,0,0,0,0,0,0],"split_type":[0,0,0,0,0,0,0,0,0,0,0,0,0,0,0,0,0,0,0,0,0,0,0,0,0,0,0,0,0,0,0,0,0,0,0,0,0,0,0,0,0,0,0,0,0,0,0,0,0,0,0,0,0,0,0,0,0,0,0,0,0,0,0,0,0,0,0,0,0,0,0,0,0,0,0,0,0,0,0,0,0,0,0,0,0,0,0,0,0,0,0,0,0,0,0],"sum_hessian":[2.7674E4,1.7976E4,9.698E3,1.0768E4,7.208E3,5.888E3,3.81E3,5.571E3,5.197E3,4.203E3,3.005E3,2.88E3,3.008E3,2.393E3,1.417E3,2.55E3,3.021E3,2.711E3,2.486E3,1.833E3,2.37E3,1.725E3,1.28E3,1.406E3,1.474E3,1.716E3,1.292E3,1.207E3,1.186E3,8.68E2,5.49E2,1.022E3,1.528E3,1.176E3,1.845E3,1.42E3,1.291E3,1.319E3,1.167E3,9.82E2,8.51E2,1.393E3,9.77E2,1.299E3,4.26E2,7.41E2,5.39E2,6.94E2,7.12E2,2.1E2,1.264E3,9.56E2,7.6E2,3.13E2,9.79E2,6.55E2,5.52E2,6.48E2,5.38E2,6.46E2,7.47E2,6.68E2,6.31E2,9.2E1,3.34E2,2.32E2,4.62E2,3.2E2,3.92E2,4.01E2,8.63E2,5.67E2,3.89E2,1.12E2,2.01E2,4.23E2,5.56E2,3.04E2,3.42E2,2.43E2,5.04E2,4.58E2,2.1E2,1.66E2,4.65E2,4E2,6.2E1,9.7E1,2.95E2,3.07E2,9.4E1,3.41E2,5.22E2,1.64E2,3.92E2],"tree_param":{"num_deleted":"0","num_feature":"9","num_nodes":"95","size_leaf_vector":"1"}},{"base_weights":[1.4773969E-4,-1.198326E-1,2.2185574E-1,-1.7811254E-1,-3.319642E-2,1.3254881E-1,3.3333677E-1,-2.0756035E-1,-1.3950954E-1,-6.373644E-2,1.1948637E-2,8.692876E-2,1.7757648E-1,2.8288943E-1,4.0771207E-1,-2.2495629E-1,-1.884171E-1,-4.638305E-3,-3.6568996E-3,-8.704194E-2,-4.65022E-2,-3.16555E-3,3.1181743E-2,6.654279E-2,1.0915075E-1,1.5873903E-1,2.0521508E-1,2.5599703E-1,9.44456E-3,3.8206193E-1,4.634789E-1,-7.0712995E-3,-6.4351833E-3,-5.9488737E-3,-5.4470687E-3,-8.929755E-2,-1.5070806E-3,-1.8120828E-3,-3.718649E-2,-1.0333803E-2,1.8170908E-2,1.9949727E-2,4.3169647E-2,5.2382708E-2,8.014765E-2,4.0612277E-3,1.0173755E-1,1.4278254E-1,1.6913687E-1,1.8449134E-1,6.4233616E-3,2.4284233E-1,8.2338825E-3,1.0967588E-2,1.22974925E-2,1.3204559E-2,1.4890101E-2,-2.313487E-3,-9.7075015E-2,-5.0682023E-2,-2.9376922E-2,5.496302E-5,-2.3390988E-2,1.6048803E-3,2.4924005E-4,1.1451605E-3,2.5868646E-4,1.7404476E-3,7.469105E-4,6.424879E-2,4.9980846E-4,3.1413613E-3,6.0051363E-2,7.9155475E-2,1.210723E-1,1.279654E-1,4.8416816E-3,5.5778753E-3,1.5784618E-1,6.337013E-3,4.8289197E-3,7.869889E-3,6.8298387E-3,-3.277258E-3,-2.4878841E-3,-8.122997E-4,-2.0803749E-3,-4.0428925E-4,-1.1174419E-3,-1.4192278E-3,-3.9002355E-4,2.438813E-3,1.471765E-3,1.239989E-3,2.4323596E-3,2.6604012E-3,1.2263849E-3,4.284452E-3,3.0643975E-3,4.271415E-3,2.8960924E-3,4.0397514E-3,5.249026E-3],"categories":[],"categories_nodes":[],"categories_segments":[],"categories_sizes":[],"default_left":[0,0,0,0,0,0,0,0,0,0,0,0,0,0,0,0,0,0,0,0,0,0,0,0,0,0,0,0,0,0,0,0,0,0,0,0,0,0,0,0,0,0,0,0,0,0,0,0,0,0,0,0,0,0,0,0,0,0,0,0,0,0,0,0,0,0,0,0,0,0,0,0,0,0,0,0,0,0,0,0,0,0,0,0,0,0,0,0,0,0,0,0,0,0,0,0,0,0,0,0,0,0,0],"id":6,"left_children":[1,3,5,7,9,11,13,15,17,19,21,23,25,27,29,31,33,-1,-1,35,37,39,41,43,45,47,49,51,-1,53,55,-1,-1,-1,-1,57,-1,-1,59,61,63,65,67,69,71,-1,73,75,77,79,-1,81,-1,-1,-1,-1,-1,-1,83,85,87,-1,89,-1,-1,-1,-1,-1,-1,91,-1,-1,93,95,97,99,-1,-1,101,-1,-1,-1,-1,-1,-1,-1,-1,-1,-1,-1,-1,-1,-1,-1,-1,-1,-1,-1,-1,-1,-1,-1,-1],"loss_changes":[7.330696E2,9.0256805E1,9.6253784E1,1.2087311E1,9.923152E0,1.0999245E1,1.5960571E1,1.9343567E0,1.1849213E0,1.7064915E0,8.4649074E-1,1.1860828E0,1.3383179E0,2.0673676E0,2.2215881E0,2.6029968E-1,1.21788025E-1,0E0,0E0,1.3273907E-1,3.0810308E-1,2.47634E-1,1.6517663E-1,2.520604E-1,2.1037483E-1,2.124443E-1,1.2161255E-1,2.2193146E-1,0E0,3.214569E-1,1.0254669E-1,0E0,0E0,0E0,0E0,1.3729E-1,0E0,0E0,1.4722657E-1,1.9583987E-1,1.3448049E-1,1.3266084E-1,1.5681946E-1,2.841674E-1,3.267417E-1,0E0,4.0745068E-1,1.287899E-1,1.19802475E-1,1.4144135E-1,0E0,1.3682556E-1,0E0,0E0,0E0,0E0,0E0,0E0,1.5002632E-1,2.2594523E-1,1.1319864E-1,0E0,1.4046517E-1,0E0,0E0,0E0,0E0,0E0,0E0,1.1683416E-1,0E0,0E0,1.3948488E-1,1.5366936E-1,1.8106604E-1,1.2908697E-1,0E0,0E0,1.7931366E-1,0E0,0E0,0E0,0E0,0E0,0E0,0E0,0E0,0E0,0E0,0E0,0E0,0E0,0E0,0E0,0E0,0E0,0E0,0E0,0E0,0E0,0E0,0E0,0E0],"parents":[2147483647,0,0,1,1,2,2,3,3,4,4,5,5,6,6,7,7,8,8,9,9,10,10,11,11,12,12,13,13,14,14,15,15,16,16,19,19,20,20,21,21,22,22,23,23,24,24,25,25,26,26,27,27,29,29,30,30,35,35,38,38,39,39,40,40,41,41,42,42,43,43,44,44,46,46,47,47,48,48,49,49,51,51,58,58,59,59,60,60,62,62,69,69,72,72,73,73,74,74,75,75,78,78],"right_children":[2,4,6,8,10,12,14,16,18,20,22,24,26,28,30,32,34,-1,-1,36,38,40,42,44,46,48,50,52,-1,54,56,-1,-1,-1,-1,58,-1,-1,60,62,64,66,68,70,72,-1,74,76,78,80,-1,82,-1,-1,-1,-1,-1,-1,84,86,88,-1,90,-1,-1,-1,-1,-1,-1,92,-1,-1,94,96,98,100,-1,-1,102,-1,-1,-1,-1,-1,-1,-1,-1,-1,-1,-1,-1,-1,-1,-1,-1,-1,-1,-1,-1,-1,-1,-1,-1],"split_conditions":[3.338E-1,1.608E-1,5.412E-1,8.58E-2,2.55E-1,4.296E-1,6.741E-1,4.77E-2,1.235E-1,2.001E-1,2.96E-1,3.796E-1,4.937E-1,6.08E-1,7.68E-1,2.68E-2,6.36E-2,-4.638305E-3,-3.6568996E-3,6.944534E-2,2.212E-1,9.19E0,8.34E0,8.4E0,7.46E0,4.558E-1,4.74397E-2,1.118E1,9.44456E-3,7.314E-1,8.144E-1,-7.0712995E-3,-6.4351833E-3,-5.9488737E-3,-5.4470687E-3,6.17E0,-1.5070806E-3,-1.8120828E-3,6.88E0,7.46E0,8.3E0,6.74E0,9.57E0,8.54E0,9.51E0,4.0612277E-3,9.34E0,9.94E0,9.3E0,8.1E0,6.4233616E-3,9.51E0,8.2338825E-3,1.0967588E-2,1.22974925E-2,1.3204559E-2,1.4890101E-2,-2.313487E-3,7.46E0,5.52E0,7.52E0,5.496302E-5,7.22E0,1.6048803E-3,2.4924005E-4,1.1451605E-3,2.5868646E-4,1.7404476E-3,7.469105E-4,1.2186934E-1,4.9980846E-4,3.1413613E-3,1.068E1,9.98E0,1.042E1,9.11E0,4.8416816E-3,5.5778753E-3,1.063E1,6.337013E-3,4.8289197E-3,7.869889E-3,6.8298387E-3,-3.277258E-3,-2.4878841E-3,-8.122997E-4,-2.0803749E-3,-4.0428925E-4,-1.1174419E-3,-1.4192278E-3,-3.9002355E-4,2.438813E-3,1.471765E-3,1.239989E-3,2.4323596E-3,2.6604012E-3,1.2263849E-3,4.284452E-3,3.0643975E-3,4.271415E-3,2.8960924E-3,4.0397514E-3,5.249026E-3],"split_indices":[5,5,5,5,5,5,5,5,5,5,5,5,5,5,5,5,5,0,0,4,5,0,0,0,7,5,4,0,0,5,5,0,0,0,0,7,0,0,0,7,7,7,7,7,7,0,0,0,7,7,0,7,0,0,0,0,0,0,0,7,7,0,0,0,0,0,0,0,0,2,0,0,0,7,7,7,0,0,0,0,0,0,0,0,0,0,0,0,0,0,0,0,0,0,0,0,0,0,0,0,0,0,0],"split_type":[0,0,0,0,0,0,0,0,0,0,0,0,0,0,0,0,0,0,0,0,0,0,0,0,0,0,0,0,0,0,0,0,0,0,0,0,0,0,0,0,0,0,0,0,0,0,0,0,0,0,0,0,0,0,0,0,0,0,0,0,0,0,0,0,0,0,0,0,0,0,0,0,0,0,0,0,0,0,0,0,0,0,0,0,0,0,0,0,0,0,0,0,0,0,0,0,0,0,0,0,0,0,0],"sum_hessian":[2.7556E4,1.788E4,9.676E3,1.0688E4,7.192E3,5.374E3,4.302E3,6.059E3,4.629E3,4.291E3,2.901E3,2.672E3,2.702E3,2.567E3,1.735E3,3.166E3,2.893E3,2.485E3,2.144E3,1.82E3,2.471E3,1.622E3,1.279E3,1.398E3,1.274E3,1.613E3,1.089E3,1.4E3,1.167E3,1.195E3,5.4E2,1.545E3,1.621E3,1.167E3,1.726E3,1.711E3,1.09E2,9.85E2,1.486E3,1.218E3,4.04E2,6.66E2,6.13E2,6.91E2,7.07E2,2.74E2,1E3,6.46E2,9.67E2,3.37E2,7.52E2,8.29E2,5.71E2,7.62E2,4.33E2,3.26E2,2.14E2,6.76E2,1.035E3,5.38E2,9.48E2,6.27E2,5.91E2,8.5E1,3.19E2,2.51E2,4.15E2,3.34E2,2.79E2,5.16E2,1.75E2,3.14E2,3.93E2,4.66E2,5.34E2,3.67E2,2.79E2,3.79E2,5.88E2,1.52E2,1.85E2,3.53E2,4.76E2,5.49E2,4.86E2,2.41E2,2.97E2,3.19E2,6.29E2,1.75E2,4.16E2,2.38E2,2.78E2,2.12E2,1.81E2,3.7E2,9.6E1,2.43E2,2.91E2,2.47E2,1.2E2,2.56E2,3.32E2],"tree_param":{"num_deleted":"0","num_feature":"9","num_nodes":"103","size_leaf_vector":"1"}},{"base_weights":[1.5563525E-4,-1.12269476E-1,2.2267395E-1,-1.712695E-1,-2.610031E-2,1.463296E-1,3.3909073E-1,-2.0194289E-1,-1.343532E-1,-6.046911E-2,1.6017383E-2,1.0169967E-1,1.9426173E-1,2.966878E-1,4.0754902E-1,-2.2022073E-1,-1.8519102E-1,-4.5401943E-3,-1.1736113E-1,-8.084221E-2,-4.3952946E-2,-1.7305025E-3,3.797707E-2,7.847638E-2,1.2636825E-1,1.7399281E-1,6.7314897E-3,8.128617E-3,3.2507634E-1,3.88664E-1,1.4075896E-2,-6.985376E-3,-6.3885637E-3,-5.824467E-3,-5.2985745E-3,-3.8250964E-3,-3.2812878E-3,-8.836005E-2,-2.0501104E-3,-1.626635E-3,-3.4098096E-2,-8.926758E-3,1.3559636E-2,2.653621E-2,5.021258E-2,6.799014E-2,9.878396E-2,4.412335E-3,1.1567096E-1,1.4913625E-1,1.8080723E-1,8.555749E-3,9.951068E-3,1.0934892E-2,1.2117705E-2,-2.2645516E-3,-3.1628981E-3,-4.248326E-2,-6.4079766E-4,1.24498E-4,-2.4163544E-2,1.2073133E-3,1.2795973E-4,1.5397063E-3,3.8068264E-4,2.0473064E-3,9.37517E-4,9.2502505E-2,5.4212306E-2,3.9549554E-3,2.5250106E-3,1.0844603E-1,4.448334E-3,5.3316443E-3,3.4371894E-3,1.6611518E-1,5.785002E-3,-6.4962055E-4,-1.5146498E-3,-1.3586094E-3,-3.629947E-4,2.0868727E-3,3.2795563E-3,8.646573E-4,1.901312E-3,3.5746375E-3,2.507653E-3,5.6136493E-3,4.495397E-3],"categories":[],"categories_nodes":[],"categories_segments":[],"categories_sizes":[],"default_left":[0,0,0,0,0,0,0,0,0,0,0,0,0,0,0,0,0,0,0,0,0,0,0,0,0,0,0,0,0,0,0,0,0,0,0,0,0,0,0,0,0,0,0,0,0,0,0,0,0,0,0,0,0,0,0,0,0,0,0,0,0,0,0,0,0,0,0,0,0,0,0,0,0,0,0,0,0,0,0,0,0,0,0,0,0,0,0,0,0],"id":7,"left_children":[1,3,5,7,9,11,13,15,17,19,21,23,25,27,29,31,33,-1,35,37,39,41,43,45,47,49,-1,-1,51,53,-1,-1,-1,-1,-1,-1,-1,55,-1,-1,57,59,61,63,65,67,69,-1,71,73,75,-1,-1,-1,-1,-1,-1,77,-1,-1,79,-1,-1,-1,-1,-1,-1,81,83,-1,-1,85,-1,-1,-1,87,-1,-1,-1,-1,-1,-1,-1,-1,-1,-1,-1,-1,-1],"loss_changes":[6.9029535E2,9.317032E1,8.222031E1,1.2259155E1,1.0792442E1,1.1921646E1,1.0453339E1,1.7371368E0,1.3818283E0,1.3652391E0,1.3085332E0,1.6315384E0,1.5671005E0,1.5099335E0,1.3605804E0,1.6572571E-1,1.6727448E-1,0E0,1.6304016E-1,1.507101E-1,2.1922731E-1,2.0321646E-1,2.0082974E-1,2.9581928E-1,2.6752853E-1,2.141037E-1,0E0,0E0,1.2700653E-1,1.7347717E-1,0E0,0E0,0E0,0E0,0E0,0E0,0E0,2.2383404E-1,0E0,0E0,1.1735749E-1,2.5375026E-1,1.4120774E-1,2.6100612E-1,2.3374653E-1,3.1635237E-1,2.1124887E-1,0E0,1.7804623E-1,3.0312443E-1,1.55056E-1,0E0,0E0,0E0,0E0,0E0,0E0,1.0807681E-1,0E0,0E0,1.4329696E-1,0E0,0E0,0E0,0E0,0E0,0E0,1.1106682E-1,1.3834488E-1,0E0,0E0,1.7473125E-1,0E0,0E0,0E0,1.361351E-1,0E0,0E0,0E0,0E0,0E0,0E0,0E0,0E0,0E0,0E0,0E0,0E0,0E0],"parents":[2147483647,0,0,1,1,2,2,3,3,4,4,5,5,6,6,7,7,8,8,9,9,10,10,11,11,12,12,13,13,14,14,15,15,16,16,18,18,19,19,20,20,21,21,22,22,23,23,24,24,25,25,28,28,29,29,37,37,40,40,41,41,42,42,43,43,44,44,45,45,46,46,48,48,49,49,50,50,57,57,60,60,67,67,68,68,71,71,75,75],"right_children":[2,4,6,8,10,12,14,16,18,20,22,24,26,28,30,32,34,-1,36,38,40,42,44,46,48,50,-1,-1,52,54,-1,-1,-1,-1,-1,-1,-1,56,-1,-1,58,60,62,64,66,68,70,-1,72,74,76,-1,-1,-1,-1,-1,-1,78,-1,-1,80,-1,-1,-1,-1,-1,-1,82,84,-1,-1,86,-1,-1,-1,88,-1,-1,-1,-1,-1,-1,-1,-1,-1,-1,-1,-1,-1],"split_conditions":[3.472E-1,1.656E-1,5.703E-1,8.44E-2,2.55E-1,4.558E-1,6.945E-1,4.36E-2,1.216E-1,2.055E-1,3.031E-1,4.002E-1,5.209E-1,6.316E-1,7.949E-1,1.85E-2,6.36E-2,-4.5401943E-3,1.393E-1,7.46E0,2.28E-1,8.8E0,8.34E0,9.69E0,-4.0673664E-1,3.4435462E-2,6.7314897E-3,8.128617E-3,5.641549E-2,7.314E-1,1.4075896E-2,-6.985376E-3,-6.3885637E-3,-5.824467E-3,-5.2985745E-3,-3.8250964E-3,-3.2812878E-3,6.4E0,-2.0501104E-3,-1.626635E-3,8.02E0,7.46E0,8.3E0,6.74E0,9.57E0,7.5E0,9.57E0,4.412335E-3,1.165E1,7.94E0,4.85E-1,8.555749E-3,9.951068E-3,1.0934892E-2,1.2117705E-2,-2.2645516E-3,-3.1628981E-3,5.02E0,-6.4079766E-4,1.24498E-4,7.22E0,1.2073133E-3,1.2795973E-4,1.5397063E-3,3.8068264E-4,2.0473064E-3,9.37517E-4,6.13E0,7.36E0,3.9549554E-3,2.5250106E-3,9.98E0,4.448334E-3,5.3316443E-3,3.4371894E-3,1.007E1,5.785002E-3,-6.4962055E-4,-1.5146498E-3,-1.3586094E-3,-3.629947E-4,2.0868727E-3,3.2795563E-3,8.646573E-4,1.901312E-3,3.5746375E-3,2.507653E-3,5.6136493E-3,4.495397E-3],"split_indices":[5,5,5,5,5,5,5,5,5,5,5,5,5,5,5,5,5,0,5,0,5,0,0,0,2,4,0,0,4,5,0,0,0,0,0,0,0,7,0,0,0,7,7,7,7,7,7,0,0,7,5,0,0,0,0,0,0,7,0,0,0,0,0,0,0,0,0,0,0,0,0,7,0,0,0,7,0,0,0,0,0,0,0,0,0,0,0,0,0],"split_type":[0,0,0,0,0,0,0,0,0,0,0,0,0,0,0,0,0,0,0,0,0,0,0,0,0,0,0,0,0,0,0,0,0,0,0,0,0,0,0,0,0,0,0,0,0,0,0,0,0,0,0,0,0,0,0,0,0,0,0,0,0,0,0,0,0,0,0,0,0,0,0,0,0,0,0,0,0,0,0,0,0,0,0,0,0,0,0,0,0],"sum_hessian":[2.7591E4,1.833E4,9.261E3,1.0879E4,7.451E3,5.595E3,3.666E3,5.938E3,4.941E3,4.104E3,3.347E3,2.9E3,2.695E3,2.268E3,1.398E3,2.831E3,3.107E3,2.464E3,2.477E3,1.833E3,2.271E3,1.849E3,1.498E3,1.498E3,1.402E3,1.617E3,1.078E3,1.197E3,1.071E3,1.077E3,3.21E2,1.018E3,1.813E3,1.503E3,1.604E3,1.079E3,1.398E3,1.136E3,6.97E2,1.105E3,1.166E3,1.262E3,5.87E2,7.8E2,7.18E2,9.94E2,5.04E2,4.7E2,9.32E2,3.56E2,1.261E3,1.61E2,9.1E2,4.29E2,6.48E2,6.54E2,4.82E2,6.97E2,4.69E2,6.76E2,5.86E2,1.48E2,4.39E2,2.76E2,5.04E2,3.64E2,3.54E2,3.53E2,6.41E2,1.5E2,3.54E2,7.69E2,1.63E2,1.91E2,1.65E2,5.78E2,6.83E2,1.98E2,4.99E2,2.09E2,3.77E2,1.54E2,1.99E2,1.74E2,4.67E2,5.32E2,2.37E2,2.45E2,3.33E2],"tree_param":{"num_deleted":"0","num_feature":"9","num_nodes":"89","size_leaf_vector":"1"}},{"base_weights":[1.3783114E-4,-1.10166274E-1,2.1410179E-1,-1.6609712E-1,-2.6202805E-2,1.4060946E-1,3.2889426E-1,-1.9568495E-1,-1.307057E-1,-5.8501434E-2,1.4813892E-2,9.4656624E-2,1.8789324E-1,2.8603578E-1,3.9675334E-1,-2.1468133E-1,-1.8058513E-1,-1.4585984E-1,-1.1264143E-1,-7.546406E-2,-3.9570127E-2,2.0381822E-3,4.0389415E-2,7.623324E-2,1.2171052E-1,1.6393442E-1,2.1161442E-1,7.7718585E-3,3.1071806E-1,3.7889794E-1,1.36636365E-2,-6.7723105E-3,-6.2310463E-3,-5.672786E-3,-5.109165E-3,-4.688695E-3,-4.161157E-3,-3.6793624E-3,-3.1913228E-3,-2.5847424E-3,-1.9432765E-3,-2.4023654E-2,-4.495184E-2,-1.2621691E-2,1.0599832E-2,3.0031318E-2,5.8548436E-2,6.6237584E-2,9.6388854E-2,1.0370069E-1,1.3244945E-1,5.377874E-3,1.5399472E-1,5.982904E-3,6.7553674E-3,8.894745E-3,9.805082E-3,1.0648402E-2,1.1807128E-2,-1.0676617E-3,-5.6749355E-5,-2.098712E-3,-3.6505084E-2,4.0045046E-4,-8.6297805E-4,-4.308719E-3,2.0051364E-2,1.1256963E-3,-2.6957106E-4,2.4476182E-3,1.1851703E-3,7.565303E-2,9.1370224E-4,3.805088E-3,2.456096E-3,4.281344E-3,2.4136824E-3,4.6799034E-3,1.22101836E-1,1.4771888E-1,5.6209047E-3,-6.3499267E-4,-1.3511629E-3,2.009307E-4,-6.5868726E-4,9.0129557E-4,1.5932422E-4,1.9324457E-3,2.887378E-3,3.226546E-3,4.4384296E-3,5.197326E-3,4.138985E-3],"categories":[],"categories_nodes":[],"categories_segments":[],"categories_sizes":[],"default_left":[0,0,0,0,0,0,0,0,0,0,0,0,0,0,0,0,0,0,0,0,0,0,0,0,0,0,0,0,0,0,0,0,0,0,0,0,0,0,0,0,0,0,0,0,0,0,0,0,0,0,0,0,0,0,0,0,0,0,0,0,0,0,0,0,0,0,0,0,0,0,0,0,0,0,0,0,0,0,0,0,0,0,0,0,0,0,0,0,0,0,0,0,0],"id":8,"left_children":[1,3,5,7,9,11,13,15,17,19,21,23,25,27,29,31,33,35,37,39,41,43,45,47,49,51,53,-1,55,57,-1,-1,-1,-1,-1,-1,-1,-1,-1,-1,-1,59,61,63,65,67,69,71,73,75,77,-1,79,-1,-1,-1,-1,-1,-1,-1,-1,-1,81,-1,-1,83,85,-1,-1,-1,-1,87,-1,-1,-1,-1,-1,-1,89,91,-1,-1,-1,-1,-1,-1,-1,-1,-1,-1,-1,-1,-1],"loss_changes":[6.52038E2,8.558249E1,7.919177E1,1.1397705E1,9.662905E0,1.2408585E1,1.0483124E1,1.629837E0,1.3226242E0,1.2957001E0,1.0448546E0,1.421341E0,1.5321503E0,1.3618469E0,1.2281494E0,1.1277008E-1,2.2283173E-1,1.5067673E-1,1.0704994E-1,2.2484016E-1,1.5375042E-1,2.691564E-1,1.9007885E-1,3.2710266E-1,1.8990135E-1,1.540451E-1,1.4616013E-1,0E0,1.08818054E-1,1.6957092E-1,0E0,0E0,0E0,0E0,0E0,0E0,0E0,0E0,0E0,0E0,0E0,1.2518755E-1,2.8883433E-1,3.3188862E-1,1.9315553E-1,2.0342427E-1,1.5269852E-1,3.8023853E-1,2.2072315E-1,3.7153673E-1,1.3076973E-1,0E0,1.203804E-1,0E0,0E0,0E0,0E0,0E0,0E0,0E0,0E0,0E0,1.3300776E-1,0E0,0E0,1.0345252E-1,1.1943534E-1,0E0,0E0,0E0,0E0,1.9087839E-1,0E0,0E0,0E0,0E0,0E0,0E0,1.5183544E-1,1.2844658E-1,0E0,0E0,0E0,0E0,0E0,0E0,0E0,0E0,0E0,0E0,0E0,0E0,0E0],"parents":[2147483647,0,0,1,1,2,2,3,3,4,4,5,5,6,6,7,7,8,8,9,9,10,10,11,11,12,12,13,13,14,14,15,15,16,16,17,17,18,18,19,19,20,20,21,21,22,22,23,23,24,24,25,25,26,26,28,28,29,29,41,41,42,42,43,43,44,44,45,45,46,46,47,47,48,48,49,49,50,50,52,52,62,62,65,65,66,66,71,71,78,78,79,79],"right_children":[2,4,6,8,10,12,14,16,18,20,22,24,26,28,30,32,34,36,38,40,42,44,46,48,50,52,54,-1,56,58,-1,-1,-1,-1,-1,-1,-1,-1,-1,-1,-1,60,62,64,66,68,70,72,74,76,78,-1,80,-1,-1,-1,-1,-1,-1,-1,-1,-1,82,-1,-1,84,86,-1,-1,-1,-1,88,-1,-1,-1,-1,-1,-1,90,92,-1,-1,-1,-1,-1,-1,-1,-1,-1,-1,-1,-1,-1],"split_conditions":[3.435E-1,1.656E-1,5.703E-1,8.44E-2,2.55E-1,4.508E-1,6.945E-1,4.11E-2,1.255E-1,2.12E-1,3.114E-1,4.045E-1,5.075E-1,6.258E-1,7.949E-1,1.85E-2,6.5E-2,1.002E-1,1.393E-1,1.886E-1,5.87E0,7.22E0,9E0,9.69E0,8.51E0,-4.3837115E-1,5.412E-1,7.7718585E-3,6.621E-1,7.314E-1,1.36636365E-2,-6.7723105E-3,-6.2310463E-3,-5.672786E-3,-5.109165E-3,-4.688695E-3,-4.161157E-3,-3.6793624E-3,-3.1913228E-3,-2.5847424E-3,-1.9432765E-3,6.31E0,6.88E0,5.8E0,2.773E-1,9.34E0,9.39E0,9.57E0,9.65E0,7.22E0,9.04E0,5.377874E-3,1.25E1,5.982904E-3,6.7553674E-3,8.894745E-3,9.805082E-3,1.0648402E-2,1.1807128E-2,-1.0676617E-3,-5.6749355E-5,-2.098712E-3,7.98E0,4.0045046E-4,-8.6297805E-4,9.08E0,9.27E0,1.1256963E-3,-2.6957106E-4,2.4476182E-3,1.1851703E-3,3.796E-1,9.1370224E-4,3.805088E-3,2.456096E-3,4.281344E-3,2.4136824E-3,4.6799034E-3,1.181E1,8.34E0,5.6209047E-3,-6.3499267E-4,-1.3511629E-3,2.009307E-4,-6.5868726E-4,9.0129557E-4,1.5932422E-4,1.9324457E-3,2.887378E-3,3.226546E-3,4.4384296E-3,5.197326E-3,4.138985E-3],"split_indices":[5,5,5,5,5,5,5,5,5,5,5,5,5,5,5,5,5,5,5,5,7,0,0,0,0,2,5,0,5,5,0,0,0,0,0,0,0,0,0,0,0,0,0,7,5,7,7,7,7,7,7,0,0,0,0,0,0,0,0,0,0,0,7,0,0,7,7,0,0,0,0,5,0,0,0,0,0,0,0,7,0,0,0,0,0,0,0,0,0,0,0,0,0],"split_type":[0,0,0,0,0,0,0,0,0,0,0,0,0,0,0,0,0,0,0,0,0,0,0,0,0,0,0,0,0,0,0,0,0,0,0,0,0,0,0,0,0,0,0,0,0,0,0,0,0,0,0,0,0,0,0,0,0,0,0,0,0,0,0,0,0,0,0,0,0,0,0,0,0,0,0,0,0,0,0,0,0,0,0,0,0,0,0,0,0,0,0,0,0],"sum_hessian":[2.7625E4,1.8228E4,9.397E3,1.0939E4,7.289E3,5.731E3,3.666E3,5.954E3,4.985E3,4.079E3,3.21E3,2.909E3,2.822E3,2.251E3,1.415E3,2.628E3,3.326E3,2.704E3,2.281E3,2.147E3,1.932E3,2.144E3,1.066E3,1.735E3,1.174E3,1.41E3,1.412E3,1.083E3,1.168E3,1.092E3,3.23E2,9.99E2,1.629E3,1.805E3,1.521E3,1.086E3,1.618E3,8.65E2,1.416E3,1.065E3,1.082E3,5.03E2,1.429E3,7.86E2,1.358E3,6.84E2,3.82E2,1.166E3,5.69E2,4.46E2,7.28E2,5.44E2,8.66E2,7.56E2,6.56E2,6.34E2,5.34E2,4.27E2,6.65E2,3.27E2,1.76E2,3.56E2,1.073E3,2.99E2,4.87E2,5.23E2,8.35E2,5.76E2,1.08E2,1.69E2,2.13E2,9.2E2,2.46E2,1.79E2,3.9E2,1.63E2,2.83E2,2.15E2,5.13E2,7.36E2,1.3E2,3.89E2,6.84E2,3.19E2,2.04E2,4.93E2,3.42E2,6.01E2,3.19E2,3.34E2,1.79E2,1.96E2,5.4E2],"tree_param":{"num_deleted":"0","num_feature":"9","num_nodes":"93","size_leaf_vector":"1"}},{"base_weights":[-3.4614262E-4,-1.0940235E-1,2.0243616E-1,-1.6257848E-1,-3.0771984E-2,1.23128965E-1,3.0683833E-1,-1.8891034E-1,-1.263417E-1,-6.344061E-2,4.755917E-3,8.2748756E-2,1.6823694E-1,2.6431075E-1,3.8148507E-1,-2.0532513E-1,-1.7123169E-1,-1.3937752E-1,-3.3103225E-3,-8.156671E-2,-4.8122026E-2,-1.7660262E-2,2.0013317E-2,6.390092E-2,1.0622521E-1,1.4618087E-1,1.8707393E-1,2.3620121E-1,2.9462755E-1,1.0665327E-2,4.2498308E-1,-6.460273E-3,-5.8688233E-3,-5.3533474E-3,-4.8874407E-3,-4.3361904E-3,-3.821188E-3,-8.863716E-2,-2.1226539E-3,-5.531765E-2,-3.600596E-2,-2.7348017E-2,-4.6929745E-3,1.4113273E-2,4.36807E-2,5.1698357E-2,7.899337E-2,1.1903863E-1,9.157932E-2,1.3700908E-1,1.604912E-1,1.7407803E-1,6.0816435E-3,2.2532903E-1,7.5720395E-3,8.42981E-3,9.386014E-3,1.2315196E-2,1.4207044E-2,-2.278824E-3,-3.1747636E-3,-1.266321E-3,-2.118597E-3,-6.804753E-4,-1.530866E-3,-1.6754736E-4,-1.1189126E-3,2.3900934E-4,-6.7987625E-4,6.867319E-3,3.3553362E-2,2.8594283E-3,1.0273268E-3,6.6134706E-2,6.0041854E-4,3.020961E-3,5.860856E-2,1.0305206E-1,4.1443068E-3,1.6027302E-3,3.239819E-3,4.3678125E-3,2.9973309E-3,5.7502287E-3,4.3979404E-3,6.2634354E-3,1.640458E-1,7.3642363E-3,6.3140453E-3,5.5126805E-4,-1.246285E-4,1.3295535E-3,2.9698797E-4,2.4246476E-3,1.530157E-3,1.4753739E-3,2.9876556E-3,3.8512892E-3,2.524282E-3,4.12514E-3,5.3027985E-3],"categories":[],"categories_nodes":[],"categories_segments":[],"categories_sizes":[],"default_left":[0,0,0,0,0,0,0,0,0,0,0,0,0,0,0,0,0,0,0,0,0,0,0,0,0,0,0,0,0,0,0,0,0,0,0,0,0,0,0,0,0,0,0,0,0,0,0,0,0,0,0,0,0,0,0,0,0,0,0,0,0,0,0,0,0,0,0,0,0,0,0,0,0,0,0,0,0,0,0,0,0,0,0,0,0,0,0,0,0,0,0,0,0,0,0,0,0,0,0,0,0],"id":9,"left_children":[1,3,5,7,9,11,13,15,17,19,21,23,25,27,29,31,33,35,-1,37,39,41,43,45,47,49,51,53,55,-1,57,-1,-1,-1,-1,-1,-1,59,-1,61,63,65,67,69,71,73,75,77,79,81,83,85,-1,87,-1,-1,-1,-1,-1,-1,-1,-1,-1,-1,-1,-1,-1,-1,-1,89,91,-1,-1,93,-1,-1,95,97,-1,-1,-1,-1,-1,-1,-1,-1,99,-1,-1,-1,-1,-1,-1,-1,-1,-1,-1,-1,-1,-1,-1],"loss_changes":[6.1086426E2,7.50836E1,7.99025E1,1.0168671E1,8.419706E0,9.964485E0,1.3069275E1,1.7269592E0,9.010086E-1,1.0321283E0,1.1880565E0,1.2598343E0,1.0162277E0,2.1441498E0,1.4768982E0,2.2842407E-1,1.1647034E-1,1.0808182E-1,0E0,1.0972977E-1,1.6786194E-1,1.7304352E-1,2.8251648E-1,2.8009224E-1,2.0974827E-1,1.0589409E-1,2.1009827E-1,1.3964844E-1,1.6950989E-1,0E0,1.0966492E-1,0E0,0E0,0E0,0E0,0E0,0E0,1.9907475E-1,0E0,2.4266052E-1,1.4619267E-1,1.6850513E-1,1.3951139E-1,2.2969922E-1,1.8306088E-1,4.0127063E-1,2.9496813E-1,1.6933155E-1,3.5950613E-1,1.9752884E-1,1.3692856E-1,1.9689178E-1,0E0,1.5512085E-1,0E0,0E0,0E0,0E0,0E0,0E0,0E0,0E0,0E0,0E0,0E0,0E0,0E0,0E0,0E0,1.5560873E-1,1.079613E-1,0E0,0E0,1.1935091E-1,0E0,0E0,1.2474573E-1,1.4847803E-1,0E0,0E0,0E0,0E0,0E0,0E0,0E0,0E0,1.4842606E-1,0E0,0E0,0E0,0E0,0E0,0E0,0E0,0E0,0E0,0E0,0E0,0E0,0E0,0E0],"parents":[2147483647,0,0,1,1,2,2,3,3,4,4,5,5,6,6,7,7,8,8,9,9,10,10,11,11,12,12,13,13,14,14,15,15,16,16,17,17,19,19,20,20,21,21,22,22,23,23,24,24,25,25,26,26,27,27,28,28,30,30,37,37,39,39,40,40,41,41,42,42,43,43,44,44,45,45,46,46,47,47,48,48,49,49,50,50,51,51,53,53,69,69,70,70,73,73,76,76,77,77,86,86],"right_children":[2,4,6,8,10,12,14,16,18,20,22,24,26,28,30,32,34,36,-1,38,40,42,44,46,48,50,52,54,56,-1,58,-1,-1,-1,-1,-1,-1,60,-1,62,64,66,68,70,72,74,76,78,80,82,84,86,-1,88,-1,-1,-1,-1,-1,-1,-1,-1,-1,-1,-1,-1,-1,-1,-1,90,92,-1,-1,94,-1,-1,96,98,-1,-1,-1,-1,-1,-1,-1,-1,100,-1,-1,-1,-1,-1,-1,-1,-1,-1,-1,-1,-1,-1,-1],"split_conditions":[3.338E-1,1.608E-1,5.453E-1,8.75E-2,2.434E-1,4.377E-1,6.871E-1,4.77E-2,1.255E-1,1.985E-1,2.773E-1,3.884E-1,4.85E-1,6.128E-1,7.68E-1,2.68E-2,6.89E-2,6.74E0,-3.3103225E-3,7.26E0,7.98E0,8.06E0,1.007E1,8.8E0,9.19E0,1.053E1,1.032E1,1.125E1,6.55E-1,1.0665327E-2,8.434E-1,-6.460273E-3,-5.8688233E-3,-5.3533474E-3,-4.8874407E-3,-4.3361904E-3,-3.821188E-3,6.4E0,-2.1226539E-3,6.71E0,8.72E0,5.73E0,9.08E0,3.177E-1,8.27E0,8.43E0,9.9E0,8.27E0,9.39E0,1.032E1,1.074E1,7.22E0,6.0816435E-3,9.51E0,7.5720395E-3,8.42981E-3,9.386014E-3,1.2315196E-2,1.4207044E-2,-2.278824E-3,-3.1747636E-3,-1.266321E-3,-2.118597E-3,-6.804753E-4,-1.530866E-3,-1.6754736E-4,-1.1189126E-3,2.3900934E-4,-6.7987625E-4,1.2186934E-1,8.61E0,2.8594283E-3,1.0273268E-3,1.90809E-1,6.0041854E-4,3.020961E-3,1.24E1,6.74E0,4.1443068E-3,1.6027302E-3,3.239819E-3,4.3678125E-3,2.9973309E-3,5.7502287E-3,4.3979404E-3,6.2634354E-3,8.34E0,7.3642363E-3,6.3140453E-3,5.5126805E-4,-1.246285E-4,1.3295535E-3,2.9698797E-4,2.4246476E-3,1.530157E-3,1.4753739E-3,2.9876556E-3,3.8512892E-3,2.524282E-3,4.12514E-3,5.3027985E-3],"split_indices":[5,5,5,5,5,5,5,5,5,5,5,5,5,5,5,5,5,0,0,0,0,0,0,0,7,0,0,0,5,0,5,0,0,0,0,0,0,7,0,7,7,7,7,5,7,7,7,0,0,7,7,7,0,7,0,0,0,0,0,0,0,0,0,0,0,0,0,0,0,2,7,0,0,2,0,0,0,7,0,0,0,0,0,0,0,0,0,0,0,0,0,0,0,0,0,0,0,0,0,0,0],"split_type":[0,0,0,0,0,0,0,0,0,0,0,0,0,0,0,0,0,0,0,0,0,0,0,0,0,0,0,0,0,0,0,0,0,0,0,0,0,0,0,0,0,0,0,0,0,0,0,0,0,0,0,0,0,0,0,0,0,0,0,0,0,0,0,0,0,0,0,0,0,0,0,0,0,0,0,0,0,0,0,0,0,0,0,0,0,0,0,0,0,0,0,0,0,0,0,0,0,0,0,0,0],"sum_hessian":[2.7621E4,1.7962E4,9.659E3,1.0714E4,7.248E3,5.491E3,4.168E3,6.201E3,4.513E3,3.777E3,3.471E3,2.9E3,2.591E3,2.659E3,1.509E3,3.207E3,2.994E3,2.479E3,2.034E3,1.725E3,2.052E3,1.403E3,2.068E3,1.613E3,1.287E3,1.2E3,1.391E3,1.386E3,1.273E3,9.52E2,5.57E2,1.562E3,1.645E3,1.586E3,1.408E3,1.72E3,7.59E2,1.033E3,6.92E2,1.28E3,7.72E2,7.98E2,6.05E2,1.66E3,4.08E2,8.98E2,7.15E2,6.79E2,6.08E2,7.42E2,4.58E2,7.7E2,6.21E2,8.42E2,5.44E2,7.41E2,5.32E2,4.38E2,1.19E2,6.01E2,4.32E2,6.95E2,5.85E2,4.14E2,3.58E2,2.54E2,5.44E2,3.52E2,2.53E2,1.214E3,4.46E2,6E1,3.48E2,6.14E2,2.84E2,3.42E2,3.73E2,3.76E2,3.03E2,1.86E2,4.22E2,5.98E2,1.44E2,1.35E2,3.23E2,1.66E2,6.04E2,3.48E2,4.94E2,5.98E2,6.16E2,3.03E2,1.43E2,3.06E2,3.08E2,3.07E2,6.6E1,1.56E2,2.2E2,2.02E2,4.02E2],"tree_param":{"num_deleted":"0","num_feature":"9","num_nodes":"101","size_leaf_vector":"1"}},{"base_weights":[5.7929603E-4,-1.01334095E-1,2.0541982E-1,-1.53486E-1,-1.8523345E-2,1.3498226E-1,3.1035998E-1,-1.8226327E-1,-1.17684275E-1,-4.9602207E-2,1.8682638E-2,9.060453E-2,1.7452346E-1,2.7068686E-1,3.7352407E-1,-1.9788666E-1,-4.927028E-3,-1.3058831E-1,-9.854804E-2,-6.500099E-2,-3.2356612E-2,6.5169297E-3,4.2769443E-2,7.25244E-2,1.11460336E-1,1.5359358E-1,2.0077398E-1,7.402985E-3,2.965936E-1,3.565574E-1,1.2887781E-2,-6.250941E-3,-5.671536E-3,-4.1869013E-3,-3.639218E-3,-1.0445237E-1,-2.5085905E-3,-7.486269E-2,-5.589682E-2,-4.58543E-2,-2.667649E-2,-1.9263347E-3,2.2178983E-2,3.2152083E-2,5.542223E-2,6.0575634E-2,8.525469E-2,3.949516E-3,1.00816436E-1,1.3098802E-1,1.606931E-1,6.923334E-3,1.957455E-1,7.7152764E-3,9.089248E-3,9.980381E-3,1.1140658E-2,-2.7186659E-3,-3.4330282E-3,-1.7844312E-3,-2.744917E-3,-1.2803259E-3,-2.1145626E-3,-8.2322035E-4,-1.9345047E-3,-4.325001E-4,-3.7098527E-2,6.427062E-3,-7.7637075E-4,4.8745796E-2,1.296733E-2,1.7112335E-3,6.548087E-4,2.3503597E-3,3.446573E-2,2.7225637E-3,1.3787509E-3,3.3562405E-3,6.925999E-2,9.4128944E-2,4.0650857E-3,4.745956E-3,2.9216988E-3,5.288101E-3,1.4872183E-1,4.7536683E-3,6.086228E-3,-1.5550888E-3,-7.065027E-4,5.590425E-4,-1.603235E-4,9.4842137E-4,2.5817053E-3,2.2397986E-4,1.7553989E-3,5.432388E-5,1.4547401E-3,1.8787361E-3,3.4572755E-3,3.9675655E-3,2.6173776E-3,3.8548228E-3,4.9391086E-3],"categories":[],"categories_nodes":[],"categories_segments":[],"categories_sizes":[],"default_left":[0,0,0,0,0,0,0,0,0,0,0,0,0,0,0,0,0,0,0,0,0,0,0,0,0,0,0,0,0,0,0,0,0,0,0,0,0,0,0,0,0,0,0,0,0,0,0,0,0,0,0,0,0,0,0,0,0,0,0,0,0,0,0,0,0,0,0,0,0,0,0,0,0,0,0,0,0,0,0,0,0,0,0,0,0,0,0,0,0,0,0,0,0,0,0,0,0,0,0,0,0,0,0],"id":10,"left_children":[1,3,5,7,9,11,13,15,17,19,21,23,25,27,29,31,-1,33,35,37,39,41,43,45,47,49,51,-1,53,55,-1,-1,-1,-1,-1,57,-1,59,61,63,65,67,69,71,73,75,77,-1,79,81,83,-1,85,-1,-1,-1,-1,-1,-1,-1,-1,-1,-1,-1,-1,-1,87,89,-1,91,93,-1,-1,-1,95,-1,-1,-1,97,99,-1,-1,-1,-1,101,-1,-1,-1,-1,-1,-1,-1,-1,-1,-1,-1,-1,-1,-1,-1,-1,-1,-1],"loss_changes":[5.746847E2,7.936699E1,6.751834E1,1.1568024E1,8.219669E0,9.5649185E0,9.036163E0,1.6914673E0,1.2062988E0,1.0166798E0,9.421686E-1,9.4750595E-1,1.523201E0,1.2730103E0,1.1123962E0,2.3008728E-1,0E0,2.0671082E-1,1.5165138E-1,1.660757E-1,1.3198042E-1,2.86646E-1,1.348157E-1,1.9153547E-1,2.2028923E-1,2.0913696E-1,1.0499191E-1,0E0,1.3722229E-1,1.9190979E-1,0E0,0E0,0E0,0E0,0E0,1.6902256E-1,0E0,2.2816229E-1,1.9221878E-1,1.7290258E-1,1.6003424E-1,2.8123197E-1,1.7869759E-1,1.4377278E-1,2.2044802E-1,3.015132E-1,2.5770712E-1,0E0,1.4753437E-1,3.2015133E-1,1.6915703E-1,0E0,2.2519302E-1,0E0,0E0,0E0,0E0,0E0,0E0,0E0,0E0,0E0,0E0,0E0,0E0,0E0,1.3021356E-1,1.4972588E-1,0E0,1.0823935E-1,1.3503478E-1,0E0,0E0,0E0,1.1350536E-1,0E0,0E0,0E0,1.03449345E-1,1.4179707E-1,0E0,0E0,0E0,0E0,1.7520332E-1,0E0,0E0,0E0,0E0,0E0,0E0,0E0,0E0,0E0,0E0,0E0,0E0,0E0,0E0,0E0,0E0,0E0,0E0],"parents":[2147483647,0,0,1,1,2,2,3,3,4,4,5,5,6,6,7,7,8,8,9,9,10,10,11,11,12,12,13,13,14,14,15,15,17,17,18,18,19,19,20,20,21,21,22,22,23,23,24,24,25,25,26,26,28,28,29,29,35,35,37,37,38,38,39,39,40,40,41,41,42,42,43,43,44,44,45,45,46,46,48,48,49,49,50,50,52,52,66,66,67,67,69,69,70,70,74,74,78,78,79,79,84,84],"right_children":[2,4,6,8,10,12,14,16,18,20,22,24,26,28,30,32,-1,34,36,38,40,42,44,46,48,50,52,-1,54,56,-1,-1,-1,-1,-1,58,-1,60,62,64,66,68,70,72,74,76,78,-1,80,82,84,-1,86,-1,-1,-1,-1,-1,-1,-1,-1,-1,-1,-1,-1,-1,88,90,-1,92,94,-1,-1,-1,96,-1,-1,-1,98,100,-1,-1,-1,-1,102,-1,-1,-1,-1,-1,-1,-1,-1,-1,-1,-1,-1,-1,-1,-1,-1,-1,-1],"split_conditions":[3.504E-1,1.746E-1,5.703E-1,8.88E-2,2.609E-1,4.466E-1,6.945E-1,5.08E-2,1.356E-1,2.192E-1,3.177E-1,4.002E-1,5.117E-1,6.316E-1,7.949E-1,2.68E-2,-4.927028E-3,1.117E-1,7.56E0,2.0600947E-2,1.6472202E-2,8.8E0,8.47E0,8.88E0,-4.0673664E-1,8.3E0,7.62E0,7.402985E-3,5.641549E-2,7.314E-1,1.2887781E-2,-6.250941E-3,-5.671536E-3,-4.1869013E-3,-3.639218E-3,5.6E0,-2.5085905E-3,5.87E0,8.16E0,5.6E0,7.98E0,8.43E0,8.3E0,6.35E0,9.48E0,6.88E0,9.48E0,3.949516E-3,1.181E1,7.89E0,1.012E1,6.923334E-3,4.2120136E-2,7.7152764E-3,9.089248E-3,9.980381E-3,1.1140658E-2,-2.7186659E-3,-3.4330282E-3,-1.7844312E-3,-2.744917E-3,-1.2803259E-3,-2.1145626E-3,-8.2322035E-4,-1.9345047E-3,-4.325001E-4,8.84E0,3.4899496E-2,-7.7637075E-4,9.94E0,1.2769416E-1,1.7112335E-3,6.548087E-4,2.3503597E-3,9.69E0,2.7225637E-3,1.3787509E-3,3.3562405E-3,1.298E1,6.94E0,4.0650857E-3,4.745956E-3,2.9216988E-3,5.288101E-3,1.144E1,4.7536683E-3,6.086228E-3,-1.5550888E-3,-7.065027E-4,5.590425E-4,-1.603235E-4,9.4842137E-4,2.5817053E-3,2.2397986E-4,1.7553989E-3,5.432388E-5,1.4547401E-3,1.8787361E-3,3.4572755E-3,3.9675655E-3,2.6173776E-3,3.8548228E-3,4.9391086E-3],"split_indices":[5,5,5,5,5,5,5,5,5,5,5,5,5,5,5,5,0,5,0,4,4,0,0,0,2,0,7,0,4,5,0,0,0,0,0,7,0,7,7,7,7,7,7,7,7,7,7,0,0,7,7,0,4,0,0,0,0,0,0,0,0,0,0,0,0,0,0,2,0,0,4,0,0,0,0,0,0,0,0,7,0,0,0,0,0,0,0,0,0,0,0,0,0,0,0,0,0,0,0,0,0,0,0],"split_type":[0,0,0,0,0,0,0,0,0,0,0,0,0,0,0,0,0,0,0,0,0,0,0,0,0,0,0,0,0,0,0,0,0,0,0,0,0,0,0,0,0,0,0,0,0,0,0,0,0,0,0,0,0,0,0,0,0,0,0,0,0,0,0,0,0,0,0,0,0,0,0,0,0,0,0,0,0,0,0,0,0,0,0,0,0,0,0,0,0,0,0,0,0,0,0,0,0,0,0,0,0,0,0],"sum_hessian":[2.7526E4,1.8381E4,9.145E3,1.1277E4,7.104E3,5.474E3,3.671E3,6.248E3,5.029E3,3.872E3,3.232E3,2.582E3,2.892E3,2.259E3,1.412E3,3.339E3,2.909E3,2.997E3,2.032E3,2.041E3,1.831E3,2.151E3,1.081E3,1.388E3,1.194E3,1.615E3,1.277E3,1.182E3,1.077E3,1.091E3,3.21E2,1.512E3,1.827E3,1.511E3,1.486E3,1.447E3,5.85E2,9.71E2,1.07E3,5.35E2,1.296E3,1.394E3,7.57E2,5.94E2,4.87E2,7.23E2,6.65E2,4.05E2,7.89E2,3.94E2,1.221E3,1.74E2,1.103E3,1.58E2,9.19E2,4.29E2,6.62E2,6.15E2,8.32E2,5.1E2,4.61E2,5.67E2,5.03E2,2.73E2,2.62E2,6.01E2,6.95E2,1.031E3,3.63E2,1.91E2,5.66E2,1.7E2,4.24E2,2.29E2,2.58E2,2.32E2,4.91E2,2.45E2,4.2E2,6.67E2,1.22E2,2.14E2,1.8E2,5.21E2,7E2,1.83E2,9.2E2,3.28E2,3.67E2,5.1E2,5.21E2,1.34E2,5.7E1,5.08E2,5.8E1,8E1,1.78E2,3.71E2,4.9E1,9.7E1,5.7E2,3.15E2,3.85E2],"tree_param":{"num_deleted":"0","num_feature":"9","num_nodes":"103","size_leaf_vector":"1"}},{"base_weights":[4.1135823E-4,-9.886549E-2,1.9923565E-1,-1.5203094E-1,-2.1655725E-2,1.3037261E-1,2.975114E-1,-1.7888233E-1,-1.1966252E-1,-5.1121645E-2,1.7945707E-2,8.565482E-2,1.6522959E-1,2.5772154E-1,3.5776713E-1,-5.8883387E-3,-1.650359E-1,-4.0578595E-3,-1.0632948E-1,-6.816771E-2,-3.4060817E-2,5.565338E-3,4.2514864E-2,7.1782164E-2,1.0514763E-1,1.408629E-1,1.8587221E-1,6.8923305E-3,2.7829692E-1,3.3441195E-1,1.1982078E-2,-5.186825E-3,-4.694365E-3,-3.4469648E-3,-2.9467107E-3,-2.3342199E-3,-1.7589135E-3,-2.560259E-2,-4.256784E-2,1.8694521E-4,2.5354153E-2,3.3254698E-2,5.6708075E-2,2.64495E-3,6.319882E-2,3.820817E-3,2.8556415E-3,1.2100323E-1,1.4722162E-1,5.1501254E-3,5.9377984E-3,7.3229196E-3,8.5381195E-3,9.563377E-3,1.0589912E-2,-4.0382545E-2,-2.9503717E-4,-2.0591929E-3,-1.0210255E-3,6.1458065E-3,-7.221264E-4,1.9767734E-3,5.048056E-4,1.2192774E-3,2.7693837E-5,2.415602E-3,1.0464197E-3,5.671726E-2,2.81687E-3,4.8637083E-3,2.9378913E-3,4.843353E-3,1.3517888E-1,-8.237646E-4,-1.9025431E-3,5.1726913E-4,-1.8982602E-4,2.040287E-3,9.973623E-4,3.609843E-3,4.5785788E-3],"categories":[],"categories_nodes":[],"categories_segments":[],"categories_sizes":[],"default_left":[0,0,0,0,0,0,0,0,0,0,0,0,0,0,0,0,0,0,0,0,0,0,0,0,0,0,0,0,0,0,0,0,0,0,0,0,0,0,0,0,0,0,0,0,0,0,0,0,0,0,0,0,0,0,0,0,0,0,0,0,0,0,0,0,0,0,0,0,0,0,0,0,0,0,0,0,0,0,0,0,0],"id":11,"left_children":[1,3,5,7,9,11,13,15,17,19,21,23,25,27,29,-1,31,-1,33,35,37,39,41,43,45,47,49,-1,51,53,-1,-1,-1,-1,-1,-1,-1,55,57,59,61,63,65,-1,67,-1,-1,69,71,-1,-1,-1,-1,-1,-1,73,-1,-1,-1,75,-1,-1,-1,-1,-1,-1,-1,77,-1,-1,-1,-1,79,-1,-1,-1,-1,-1,-1,-1,-1],"loss_changes":[5.4367163E2,7.5386215E1,6.1997314E1,9.403198E0,8.747761E0,8.371651E0,8.904266E0,1.3627014E0,9.882965E-1,1.2373991E0,9.670994E-1,6.1483765E-1,1.46521E0,1.1977081E0,1.2506866E0,0E0,1.6312408E-1,0E0,1.5286255E-1,1.7908859E-1,1.470108E-1,2.240349E-1,1.2948656E-1,1.7461205E-1,1.8220711E-1,1.3165092E-1,2.0895386E-1,0E0,1.5957642E-1,1.0153198E-1,0E0,0E0,0E0,0E0,0E0,0E0,0E0,2.4814016E-1,2.2456968E-1,2.4105324E-1,1.4652196E-1,1.5178275E-1,2.0186925E-1,0E0,1.624608E-1,0E0,0E0,2.8829718E-1,1.2819672E-1,0E0,0E0,0E0,0E0,0E0,0E0,1.5529042E-1,0E0,0E0,0E0,1.8833145E-1,0E0,0E0,0E0,0E0,0E0,0E0,0E0,1.9011259E-1,0E0,0E0,0E0,0E0,1.04044914E-1,0E0,0E0,0E0,0E0,0E0,0E0,0E0,0E0],"parents":[2147483647,0,0,1,1,2,2,3,3,4,4,5,5,6,6,7,7,8,8,9,9,10,10,11,11,12,12,13,13,14,14,16,16,18,18,19,19,20,20,21,21,22,22,23,23,24,24,25,25,26,26,28,28,29,29,37,37,38,38,39,39,40,40,41,41,42,42,44,44,47,47,48,48,55,55,59,59,67,67,72,72],"right_children":[2,4,6,8,10,12,14,16,18,20,22,24,26,28,30,-1,32,-1,34,36,38,40,42,44,46,48,50,-1,52,54,-1,-1,-1,-1,-1,-1,-1,56,58,60,62,64,66,-1,68,-1,-1,70,72,-1,-1,-1,-1,-1,-1,74,-1,-1,-1,76,-1,-1,-1,-1,-1,-1,-1,78,-1,-1,-1,-1,80,-1,-1,-1,-1,-1,-1,-1,-1],"split_conditions":[3.504E-1,1.656E-1,5.65E-1,8.44E-2,2.609E-1,4.377E-1,6.871E-1,4.11E-2,1.18E-1,2.12E-1,3.177E-1,4.002E-1,4.937E-1,6.128E-1,7.68E-1,-5.8883387E-3,6.36E-2,-4.0578595E-3,1.393E-1,1.886E-1,7.56E0,5.9597123E-2,4.441843E-2,-3.9073113E-1,-5.4463905E-1,3.5337377E-2,5.254E-1,6.8923305E-3,5.5607695E-2,7.314E-1,1.1982078E-2,-5.186825E-3,-4.694365E-3,-3.4469648E-3,-2.9467107E-3,-2.3342199E-3,-1.7589135E-3,1.705653E-2,2.7244065E-2,9.11E0,8.3E0,9.04E0,9.65E0,2.64495E-3,8.757474E-2,3.820817E-3,2.8556415E-3,6.43E0,1.012E1,5.1501254E-3,5.9377984E-3,7.3229196E-3,8.5381195E-3,9.563377E-3,1.0589912E-2,5.73E0,-2.9503717E-4,-2.0591929E-3,-1.0210255E-3,2.2495106E-1,-7.221264E-4,1.9767734E-3,5.048056E-4,1.2192774E-3,2.7693837E-5,2.415602E-3,1.0464197E-3,9.57E0,2.81687E-3,4.8637083E-3,2.9378913E-3,4.843353E-3,1.2451412E-1,-8.237646E-4,-1.9025431E-3,5.1726913E-4,-1.8982602E-4,2.040287E-3,9.973623E-4,3.609843E-3,4.5785788E-3],"split_indices":[5,5,5,5,5,5,5,5,5,5,5,5,5,5,5,0,5,0,5,5,7,4,4,2,2,4,5,0,4,5,0,0,0,0,0,0,0,4,4,7,7,7,7,0,4,0,0,7,7,0,0,0,0,0,0,7,0,0,0,2,0,0,0,0,0,0,0,7,0,0,0,0,4,0,0,0,0,0,0,0,0],"split_type":[0,0,0,0,0,0,0,0,0,0,0,0,0,0,0,0,0,0,0,0,0,0,0,0,0,0,0,0,0,0,0,0,0,0,0,0,0,0,0,0,0,0,0,0,0,0,0,0,0,0,0,0,0,0,0,0,0,0,0,0,0,0,0,0,0,0,0,0,0,0,0,0,0,0,0,0,0,0,0,0,0],"sum_hessian":[2.7541E4,1.8369E4,9.172E3,1.0877E4,7.492E3,5.395E3,3.777E3,5.941E3,4.936E3,4.297E3,3.195E3,2.366E3,3.029E3,2.279E3,1.498E3,2.624E3,3.317E3,2.267E3,2.669E3,2.145E3,2.152E3,2.128E3,1.067E3,1.388E3,9.78E2,1.395E3,1.634E3,9.73E2,1.306E3,9.67E2,5.31E2,1.713E3,1.604E3,1.285E3,1.384E3,1.058E3,1.087E3,1.087E3,1.065E3,1.678E3,4.5E2,6.52E2,4.15E2,4.7E2,9.18E2,2.96E2,6.82E2,3.47E2,1.048E3,7.61E2,8.73E2,2.12E2,1.094E3,5.38E2,4.29E2,5.57E2,5.3E2,2.58E2,8.07E2,1.351E3,3.27E2,7.5E1,3.75E2,5.28E2,1.24E2,1.95E2,2.2E2,7.63E2,1.55E2,1.21E2,2.26E2,4.71E2,5.77E2,3.61E2,1.96E2,7.19E2,6.32E2,5.11E2,2.52E2,3.19E2,2.58E2],"tree_param":{"num_deleted":"0","num_feature":"9","num_nodes":"81","size_leaf_vector":"1"}},{"base_weights":[2.3109016E-4,-9.998419E-2,1.8505464E-1,-1.4955826E-1,-2.9622717E-2,1.1397584E-1,2.8193444E-1,-1.7544028E-1,-1.2041863E-1,-5.7379123E-2,6.65349E-3,7.616947E-2,1.5447642E-1,2.3674133E-1,3.3736414E-1,-5.7300176E-3,-1.6239785E-1,-1.3547748E-1,-1.0655842E-1,-7.467875E-2,-4.2428367E-2,-1.0354509E-2,2.1727737E-2,5.644818E-2,9.4432265E-2,1.3479102E-1,1.7601947E-1,6.4749923E-3,7.7739E-3,9.317397E-3,3.744304E-1,-5.152229E-3,-4.6889973E-3,-4.215154E-3,-3.689578E-3,-3.3725009E-3,-2.8994523E-3,-8.120763E-2,-1.8749671E-3,-5.0311465E-2,-3.2751724E-2,-1.20930225E-2,1.8015635E-3,5.197243E-3,3.0725207E-2,3.8750887E-2,6.5434255E-2,1.12821765E-1,8.41945E-2,1.2590681E-1,1.4875898E-1,1.6322911E-1,1.9078341E-1,1.0914938E-2,1.3038407E-2,-2.0724311E-3,-2.9041031E-3,-9.5172465E-4,-1.8725194E-3,-6.1274995E-4,-1.4715662E-3,-1.8222787E-4,-7.2256714E-4,8.23788E-4,-3.4789008E-4,4.947966E-2,1.972088E-2,2.0274657E-3,7.017406E-4,2.4449616E-3,4.70322E-2,3.5975939E-3,2.299155E-3,6.968674E-2,9.485375E-2,4.2916103E-3,3.33055E-3,5.1205186E-3,1.326523E-1,5.3739403E-3,4.3004598E-3,6.701367E-3,5.4318025E-3,1.2606062E-3,2.9746136E-3,2.9535423E-4,1.0985414E-3,6.171278E-4,1.8288387E-3,3.2639531E-3,1.7031443E-3,3.7571923E-3,2.492685E-3,2.895367E-3,4.406323E-3],"categories":[],"categories_nodes":[],"categories_segments":[],"categories_sizes":[],"default_left":[0,0,0,0,0,0,0,0,0,0,0,0,0,0,0,0,0,0,0,0,0,0,0,0,0,0,0,0,0,0,0,0,0,0,0,0,0,0,0,0,0,0,0,0,0,0,0,0,0,0,0,0,0,0,0,0,0,0,0,0,0,0,0,0,0,0,0,0,0,0,0,0,0,0,0,0,0,0,0,0,0,0,0,0,0,0,0,0,0,0,0,0,0,0,0],"id":12,"left_children":[1,3,5,7,9,11,13,15,17,19,21,23,25,27,29,-1,31,33,35,37,39,41,43,45,47,49,51,-1,-1,-1,53,-1,-1,-1,-1,-1,-1,55,-1,57,59,61,-1,63,65,67,69,71,73,75,77,79,81,-1,-1,-1,-1,-1,-1,-1,-1,-1,-1,-1,-1,83,85,-1,-1,-1,87,-1,-1,89,91,-1,-1,-1,93,-1,-1,-1,-1,-1,-1,-1,-1,-1,-1,-1,-1,-1,-1,-1,-1],"loss_changes":[5.1079364E2,6.234845E1,6.669589E1,7.860031E0,7.4494452E0,8.532127E0,1.0138397E1,1.0601807E0,9.92218E-1,1.0688324E0,8.2281274E-1,1.0229816E0,1.089798E0,9.5635986E-1,1.6409454E0,0E0,1.129837E-1,1.04587555E-1,1.18011475E-1,1.3466644E-1,1.6190863E-1,1.7990193E-1,2.4939096E-1,2.093687E-1,2.5320053E-1,1.2964249E-1,1.7573547E-1,0E0,0E0,0E0,2.5001526E-1,0E0,0E0,0E0,0E0,0E0,0E0,2.1369743E-1,0E0,2.6627445E-1,1.9700074E-1,1.02870524E-1,0E0,2.2809288E-1,2.1870959E-1,2.0055425E-1,2.5587463E-1,1.0727358E-1,1.2709284E-1,1.8260193E-1,1.3807297E-1,1.6274261E-1,1.0483551E-1,0E0,0E0,0E0,0E0,0E0,0E0,0E0,0E0,0E0,0E0,0E0,0E0,1.3067383E-1,1.1130297E-1,0E0,0E0,0E0,1.509257E-1,0E0,0E0,1.8891907E-1,1.6644096E-1,0E0,0E0,0E0,1.2548304E-1,0E0,0E0,0E0,0E0,0E0,0E0,0E0,0E0,0E0,0E0,0E0,0E0,0E0,0E0,0E0,0E0],"parents":[2147483647,0,0,1,1,2,2,3,3,4,4,5,5,6,6,7,7,8,8,9,9,10,10,11,11,12,12,13,13,14,14,16,16,17,17,18,18,19,19,20,20,21,21,22,22,23,23,24,24,25,25,26,26,30,30,37,37,39,39,40,40,41,41,43,43,44,44,45,45,46,46,47,47,48,48,49,49,50,50,51,51,52,52,65,65,66,66,70,70,73,73,74,74,78,78],"right_children":[2,4,6,8,10,12,14,16,18,20,22,24,26,28,30,-1,32,34,36,38,40,42,44,46,48,50,52,-1,-1,-1,54,-1,-1,-1,-1,-1,-1,56,-1,58,60,62,-1,64,66,68,70,72,74,76,78,80,82,-1,-1,-1,-1,-1,-1,-1,-1,-1,-1,-1,-1,84,86,-1,-1,-1,88,-1,-1,90,92,-1,-1,-1,94,-1,-1,-1,-1,-1,-1,-1,-1,-1,-1,-1,-1,-1,-1,-1,-1],"split_conditions":[3.338E-1,1.565E-1,5.501E-1,7.86E-2,2.483E-1,4.377E-1,6.676E-1,3.97E-2,1.134E-1,1.985E-1,2.852E-1,3.796E-1,4.937E-1,6.08E-1,7.456E-1,-5.7300176E-3,5.48E-2,6.64E0,1.393E-1,7.46E0,2.7861547E-2,1.204E1,2.5785364E-2,2.8255995E-2,-4.0673664E-1,1.053E1,1.032E1,6.4749923E-3,7.7739E-3,9.317397E-3,8.434E-1,-5.152229E-3,-4.6889973E-3,-4.215154E-3,-3.689578E-3,-3.3725009E-3,-2.8994523E-3,6.4E0,-1.8749671E-3,5.6E0,8.72E0,6.0181504E-1,1.8015635E-3,6.53E0,8.3E0,6.35E0,9.48E0,1.057E1,8.8E0,8.64E0,1.132E1,9.15E0,1.022E1,1.0914938E-2,1.3038407E-2,-2.0724311E-3,-2.9041031E-3,-9.5172465E-4,-1.8725194E-3,-6.1274995E-4,-1.4715662E-3,-1.8222787E-4,-7.2256714E-4,8.23788E-4,-3.4789008E-4,1.007E1,1.032E1,2.0274657E-3,7.017406E-4,2.4449616E-3,9.57E0,3.5975939E-3,2.299155E-3,6.67E0,9.22E0,4.2916103E-3,3.33055E-3,5.1205186E-3,1.23E1,5.3739403E-3,4.3004598E-3,6.701367E-3,5.4318025E-3,1.2606062E-3,2.9746136E-3,2.9535423E-4,1.0985414E-3,6.171278E-4,1.8288387E-3,3.2639531E-3,1.7031443E-3,3.7571923E-3,2.492685E-3,2.895367E-3,4.406323E-3],"split_indices":[5,5,5,5,5,5,5,5,5,5,5,5,5,5,5,0,5,0,5,0,4,0,4,4,2,0,0,0,0,0,5,0,0,0,0,0,0,7,0,7,7,2,0,7,7,7,7,7,0,7,7,7,7,0,0,0,0,0,0,0,0,0,0,0,0,0,0,0,0,0,0,0,0,7,7,0,0,0,0,0,0,0,0,0,0,0,0,0,0,0,0,0,0,0,0],"split_type":[0,0,0,0,0,0,0,0,0,0,0,0,0,0,0,0,0,0,0,0,0,0,0,0,0,0,0,0,0,0,0,0,0,0,0,0,0,0,0,0,0,0,0,0,0,0,0,0,0,0,0,0,0,0,0,0,0,0,0,0,0,0,0,0,0,0,0,0,0,0,0,0,0,0,0,0,0,0,0,0,0,0,0,0,0,0,0,0,0,0,0,0,0,0,0],"sum_hessian":[2.7575E4,1.788E4,9.695E3,1.0488E4,7.392E3,5.594E3,4.101E3,5.55E3,4.938E3,4.189E3,3.203E3,2.896E3,2.698E3,2.263E3,1.838E3,2.521E3,3.029E3,2.359E3,2.579E3,1.937E3,2.252E3,1.502E3,1.701E3,1.397E3,1.499E3,1.416E3,1.282E3,1.178E3,1.085E3,1.074E3,7.64E2,1.179E3,1.85E3,1.669E3,6.9E2,1.608E3,9.71E2,1.252E3,6.85E2,1.233E3,1.019E3,1.468E3,3.4E1,6.04E2,1.097E3,4.76E2,9.21E2,5.29E2,9.7E2,8.76E2,5.4E2,6.97E2,5.85E2,6.57E2,1.07E2,7.11E2,5.41E2,4.91E2,7.42E2,5.85E2,4.34E2,9.84E2,4.84E2,2.62E2,3.42E2,4.01E2,6.96E2,1.62E2,3.14E2,4.87E2,4.34E2,4.38E2,9.1E1,4.18E2,5.52E2,4E2,4.76E2,2.22E2,3.18E2,3.8E2,3.17E2,1.27E2,4.58E2,3.52E2,4.9E1,4.44E2,2.52E2,1.53E2,2.81E2,1E2,3.18E2,1.49E2,4.03E2,9.4E1,2.24E2],"tree_param":{"num_deleted":"0","num_feature":"9","num_nodes":"95","size_leaf_vector":"1"}},{"base_weights":[1.19563156E-4,-9.9443175E-2,1.749935E-1,-1.4501841E-1,-3.207984E-2,1.03854306E-1,2.6928037E-1,-1.7016199E-1,-1.16972014E-1,-5.9038337E-2,-1.6300746E-3,6.806821E-2,1.4381549E-1,2.2386037E-1,3.2443684E-1,-5.592783E-3,-1.585998E-1,-3.94434E-3,-1.0366764E-1,-2.2994105E-3,-4.7244407E-2,-1.7349364E-2,1.2940669E-2,4.9691815E-2,8.605571E-2,1.24747E-1,1.6138436E-1,2.0431657E-1,7.429701E-3,8.755194E-3,3.5751006E-1,-4.9246233E-3,-4.4655805E-3,-3.296874E-3,-2.8514103E-3,-5.60201E-2,-3.8068336E-2,-2.6380427E-2,-4.9960013E-3,4.1165957E-3,2.7595485E-2,3.693147E-2,6.250846E-2,7.288896E-2,9.7458236E-2,4.225663E-3,1.1389275E-1,1.4853507E-1,5.180025E-3,1.9430262E-1,6.5694596E-3,1.0285102E-2,1.2148053E-2,-1.2400228E-3,-2.0822168E-3,-5.7670183E-4,-1.3913579E-3,-4.2714778E-4,-1.2517858E-3,1.7358082E-4,-6.177722E-4,6.984605E-4,-7.067834E-3,1.5002853E-3,1.9891867E-2,4.7935866E-2,2.1093691E-4,2.41524E-3,4.4070877E-2,3.0136884E-3,1.6780859E-3,3.5510934E-3,8.238244E-2,1.0727766E-1,4.2642523E-3,4.9792198E-3,3.825446E-3,6.470063E-3,5.439649E-3,-7.970829E-4,5.2595326E-5,4.263727E-4,1.7920546E-3,1.9889392E-3,1.0988708E-3,8.610235E-4,1.9467906E-3,1.58564E-3,2.8781402E-3,3.4674818E-3,2.2597127E-3],"categories":[],"categories_nodes":[],"categories_segments":[],"categories_sizes":[],"default_left":[0,0,0,0,0,0,0,0,0,0,0,0,0,0,0,0,0,0,0,0,0,0,0,0,0,0,0,0,0,0,0,0,0,0,0,0,0,0,0,0,0,0,0,0,0,0,0,0,0,0,0,0,0,0,0,0,0,0,0,0,0,0,0,0,0,0,0,0,0,0,0,0,0,0,0,0,0,0,0,0,0,0,0,0,0,0,0,0,0,0,0],"id":13,"left_children":[1,3,5,7,9,11,13,15,17,19,21,23,25,27,29,-1,31,-1,33,-1,35,37,39,41,43,45,47,49,-1,-1,51,-1,-1,-1,-1,53,55,57,59,61,63,65,67,69,71,-1,73,75,-1,77,-1,-1,-1,-1,-1,-1,-1,-1,-1,-1,-1,-1,79,-1,81,83,-1,-1,85,-1,-1,-1,87,89,-1,-1,-1,-1,-1,-1,-1,-1,-1,-1,-1,-1,-1,-1,-1,-1,-1],"loss_changes":[4.8034018E2,5.394693E1,6.707001E1,7.3445587E0,5.818801E0,8.130341E0,1.0652435E1,9.747162E-1,9.202957E-1,7.652664E-1,7.645196E-1,9.784126E-1,8.53775E-1,1.0036316E0,1.9222412E0,0E0,1.1962128E-1,0E0,1.0844231E-1,0E0,1.7036724E-1,1.7612547E-1,2.2017181E-1,2.3241019E-1,2.0391464E-1,1.85606E-1,1.4463043E-1,1.07917786E-1,0E0,0E0,4.5236206E-1,0E0,0E0,0E0,0E0,2.1156096E-1,1.6685116E-1,1.6597909E-1,1.1679001E-1,2.3414603E-1,1.0338664E-1,2.4291599E-1,2.2990847E-1,3.119564E-1,2.2458649E-1,0E0,1.0650158E-1,1.9288921E-1,0E0,1.40028E-1,0E0,0E0,0E0,0E0,0E0,0E0,0E0,0E0,0E0,0E0,0E0,0E0,1.1984843E-1,0E0,1.01505846E-1,1.0146856E-1,0E0,0E0,1.07512414E-1,0E0,0E0,0E0,1.7017603E-1,1.4284182E-1,0E0,0E0,0E0,0E0,0E0,0E0,0E0,0E0,0E0,0E0,0E0,0E0,0E0,0E0,0E0,0E0,0E0],"parents":[2147483647,0,0,1,1,2,2,3,3,4,4,5,5,6,6,7,7,8,8,9,9,10,10,11,11,12,12,13,13,14,14,16,16,18,18,20,20,21,21,22,22,23,23,24,24,25,25,26,26,27,27,30,30,35,35,36,36,37,37,38,38,39,39,40,40,41,41,42,42,43,43,44,44,46,46,47,47,49,49,62,62,64,64,65,65,68,68,72,72,73,73],"right_children":[2,4,6,8,10,12,14,16,18,20,22,24,26,28,30,-1,32,-1,34,-1,36,38,40,42,44,46,48,50,-1,-1,52,-1,-1,-1,-1,54,56,58,60,62,64,66,68,70,72,-1,74,76,-1,78,-1,-1,-1,-1,-1,-1,-1,-1,-1,-1,-1,-1,80,-1,82,84,-1,-1,86,-1,-1,-1,88,90,-1,-1,-1,-1,-1,-1,-1,-1,-1,-1,-1,-1,-1,-1,-1,-1,-1],"split_conditions":[3.239E-1,1.565E-1,5.412E-1,7.86E-2,2.375E-1,4.296E-1,6.621E-1,3.71E-2,1.134E-1,1.886E-1,2.773E-1,3.718E-1,4.802E-1,6.029E-1,7.314E-1,-5.592783E-3,6.36E-2,-3.94434E-3,6.6E0,-2.2994105E-3,7.3E0,8.1E0,8.8E0,8.4E0,8.8E0,-2.923717E-1,9.85E0,1.118E1,7.429701E-3,8.755194E-3,8.144E-1,-4.9246233E-3,-4.4655805E-3,-3.296874E-3,-2.8514103E-3,5.82E0,7.56E0,7.01E0,9.08E0,6.74E0,8.3E0,8.43E0,9.65E0,7.46E0,9.72E0,4.225663E-3,1.24E1,8.91E0,5.180025E-3,9.15E0,6.5694596E-3,1.0285102E-2,1.2148053E-2,-1.2400228E-3,-2.0822168E-3,-5.7670183E-4,-1.3913579E-3,-4.2714778E-4,-1.2517858E-3,1.7358082E-4,-6.177722E-4,6.984605E-4,6.67E0,1.5002853E-3,1.23E1,6.35E0,2.1093691E-4,2.41524E-3,1.085E1,3.0136884E-3,1.6780859E-3,3.5510934E-3,1.026E1,1.104E1,4.2642523E-3,4.9792198E-3,3.825446E-3,6.470063E-3,5.439649E-3,-7.970829E-4,5.2595326E-5,4.263727E-4,1.7920546E-3,1.9889392E-3,1.0988708E-3,8.610235E-4,1.9467906E-3,1.58564E-3,2.8781402E-3,3.4674818E-3,2.2597127E-3],"split_indices":[5,5,5,5,5,5,5,5,5,5,5,5,5,5,5,0,5,0,0,0,0,0,0,0,0,2,0,0,0,0,5,0,0,0,0,7,7,7,7,7,7,7,7,7,7,0,0,7,0,7,0,0,0,0,0,0,0,0,0,0,0,0,0,0,0,7,0,0,0,0,0,0,0,7,0,0,0,0,0,0,0,0,0,0,0,0,0,0,0,0,0],"split_type":[0,0,0,0,0,0,0,0,0,0,0,0,0,0,0,0,0,0,0,0,0,0,0,0,0,0,0,0,0,0,0,0,0,0,0,0,0,0,0,0,0,0,0,0,0,0,0,0,0,0,0,0,0,0,0,0,0,0,0,0,0,0,0,0,0,0,0,0,0,0,0,0,0,0,0,0,0,0,0,0,0,0,0,0,0,0,0,0,0,0,0],"sum_hessian":[2.7586E4,1.7578E4,1.0008E4,1.0483E4,7.095E3,5.706E3,4.302E3,5.523E3,4.96E3,3.761E3,3.334E3,3.013E3,2.693E3,2.363E3,1.939E3,2.285E3,3.238E3,2.365E3,2.595E3,1.503E3,2.258E3,1.607E3,1.727E3,1.495E3,1.518E3,1.298E3,1.395E3,1.305E3,1.058E3,9.83E2,9.56E2,2.046E3,1.192E3,1.493E3,1.102E3,1.146E3,1.112E3,9.23E2,6.84E2,1.083E3,6.44E2,7.55E2,7.4E2,7.12E2,8.06E2,5.14E2,7.84E2,6.63E2,7.32E2,7.88E2,5.17E2,7.38E2,2.18E2,5.52E2,5.94E2,3.45E2,7.67E2,5.2E2,4.03E2,4.01E2,2.83E2,4.02E2,6.81E2,1.6E2,4.84E2,5.49E2,2.06E2,3.7E2,3.7E2,2.67E2,4.45E2,3.32E2,4.74E2,6.42E2,1.42E2,3.56E2,3.07E2,2.89E2,4.99E2,2.15E2,4.66E2,4.27E2,5.7E1,2.04E2,3.45E2,2.17E2,1.53E2,1.53E2,3.21E2,5.05E2,1.37E2],"tree_param":{"num_deleted":"0","num_feature":"9","num_nodes":"91","size_leaf_vector":"1"}},{"base_weights":[-3.9777783E-4,-8.956212E-2,1.8315491E-1,-1.364349E-1,-1.5022133E-2,1.2090972E-1,2.73789E-1,-1.6148104E-1,-1.0397462E-1,-4.3539606E-2,1.7785981E-2,8.6264886E-2,1.5845682E-1,2.4134298E-1,3.343196E-1,-1.7549025E-1,-4.3673846E-3,-1.1620273E-1,-8.89226E-2,-5.7503596E-2,-2.943489E-2,4.3034856E-3,3.671478E-2,6.998252E-2,1.0840281E-1,1.386955E-1,5.323707E-3,6.5743383E-3,2.6334843E-1,3.174342E-1,1.1420781E-2,-5.5561536E-3,-5.0091776E-3,-3.6780243E-3,-3.2324998E-3,-9.374898E-2,-2.295779E-3,-6.6350214E-2,-4.9197815E-2,-4.266991E-2,-2.3697281E-2,1.4525408E-2,-5.634197E-3,2.532209E-2,4.9538173E-2,5.6744296E-2,8.2560614E-2,9.522046E-2,1.2248256E-1,4.6210513E-3,3.8651633E-3,6.6513037E-3,8.040087E-3,8.231259E-3,9.738007E-3,-2.4174491E-3,-3.088511E-3,-1.5841699E-3,-2.4176342E-3,-1.1314142E-3,-1.8902856E-3,-7.2602823E-4,-1.824981E-3,-3.4474587E-4,-3.399309E-2,7.796674E-4,2.2311702E-2,-1.3539646E-2,3.6050507E-4,1.5054403E-3,4.0228062E-4,2.0870492E-3,3.0379673E-2,7.949483E-2,3.910557E-2,3.119874E-3,6.789943E-2,3.5722852E-3,2.3139466E-3,4.214436E-3,1.0766306E-1,-1.3063008E-3,-5.260364E-4,3.349831E-4,-8.257753E-4,9.7465573E-4,1.4137573E-4,3.8172185E-4,-5.7812413E-4,-0E0,1.3318107E-3,2.8574946E-3,1.6695246E-3,1.4738753E-3,2.582879E-4,1.7740882E-3,3.3509242E-3,2.3692106E-3,3.7979488E-3],"categories":[],"categories_nodes":[],"categories_segments":[],"categories_sizes":[],"default_left":[0,0,0,0,0,0,0,0,0,0,0,0,0,0,0,0,0,0,0,0,0,0,0,0,0,0,0,0,0,0,0,0,0,0,0,0,0,0,0,0,0,0,0,0,0,0,0,0,0,0,0,0,0,0,0,0,0,0,0,0,0,0,0,0,0,0,0,0,0,0,0,0,0,0,0,0,0,0,0,0,0,0,0,0,0,0,0,0,0,0,0,0,0,0,0,0,0,0,0],"id":14,"left_children":[1,3,5,7,9,11,13,15,17,19,21,23,25,27,29,31,-1,33,35,37,39,41,43,45,47,49,-1,-1,51,53,-1,-1,-1,-1,-1,55,-1,57,59,61,63,65,67,69,71,73,75,77,79,-1,-1,-1,-1,-1,-1,-1,-1,-1,-1,-1,-1,-1,-1,-1,81,83,85,87,-1,-1,-1,-1,89,91,93,-1,95,-1,-1,-1,97,-1,-1,-1,-1,-1,-1,-1,-1,-1,-1,-1,-1,-1,-1,-1,-1,-1,-1],"loss_changes":[4.5103104E2,6.479109E1,5.075763E1,9.21434E0,6.7050853E0,6.9134064E0,7.0636597E0,1.3734283E0,8.828163E-1,7.4475145E-1,8.4558094E-1,9.777298E-1,9.057236E-1,1.0625153E0,8.0848694E-1,2.1577454E-1,0E0,1.115036E-1,1.09399796E-1,1.2640572E-1,1.3762033E-1,1.9895472E-1,1.9316006E-1,2.4930143E-1,1.8465233E-1,1.4282799E-1,0E0,0E0,1.2300873E-1,1.4201355E-1,0E0,0E0,0E0,0E0,0E0,1.668396E-1,0E0,1.6020536E-1,1.4632368E-1,1.8190062E-1,1.6370744E-1,1.0106291E-1,1.3762167E-1,2.1152064E-1,2.3540878E-1,3.024521E-1,2.3313284E-1,2.3658133E-1,1.0969639E-1,0E0,0E0,0E0,0E0,0E0,0E0,0E0,0E0,0E0,0E0,0E0,0E0,0E0,0E0,0E0,1.0677242E-1,1.0303904E-1,1.0573825E-1,1.0385659E-1,0E0,0E0,0E0,0E0,1.430564E-1,1.0808563E-1,1.3135904E-1,0E0,1.6514516E-1,0E0,0E0,0E0,1.4056563E-1,0E0,0E0,0E0,0E0,0E0,0E0,0E0,0E0,0E0,0E0,0E0,0E0,0E0,0E0,0E0,0E0,0E0,0E0],"parents":[2147483647,0,0,1,1,2,2,3,3,4,4,5,5,6,6,7,7,8,8,9,9,10,10,11,11,12,12,13,13,14,14,15,15,17,17,18,18,19,19,20,20,21,21,22,22,23,23,24,24,25,25,28,28,29,29,35,35,37,37,38,38,39,39,40,40,41,41,42,42,43,43,44,44,45,45,46,46,47,47,48,48,64,64,65,65,66,66,67,67,72,72,73,73,74,74,76,76,80,80],"right_children":[2,4,6,8,10,12,14,16,18,20,22,24,26,28,30,32,-1,34,36,38,40,42,44,46,48,50,-1,-1,52,54,-1,-1,-1,-1,-1,56,-1,58,60,62,64,66,68,70,72,74,76,78,80,-1,-1,-1,-1,-1,-1,-1,-1,-1,-1,-1,-1,-1,-1,-1,82,84,86,88,-1,-1,-1,-1,90,92,94,-1,96,-1,-1,-1,98,-1,-1,-1,-1,-1,-1,-1,-1,-1,-1,-1,-1,-1,-1,-1,-1,-1,-1],"split_conditions":[3.541E-1,1.746E-1,5.703E-1,9.02E-2,2.609E-1,4.61E-1,7.031E-1,5.08E-2,1.319E-1,2.171E-1,3.114E-1,4.132E-1,5.117E-1,6.316E-1,7.949E-1,2.68E-2,-4.3673846E-3,1.134E-1,7.52E0,2.0600947E-2,6.4E0,1.2186934E-1,8.47E0,8.72E0,9.57E0,-4.3837115E-1,5.323707E-3,6.5743383E-3,4.8808146E-2,6.306807E-2,1.1420781E-2,-5.5561536E-3,-5.0091776E-3,-3.6780243E-3,-3.2324998E-3,5.52E0,-2.295779E-3,5.8E0,8.3E0,5.6E0,7.98E0,2.510868E-2,8.8E0,6.64E0,9.51E0,7.62E0,9.57E0,7.89E0,1.047E1,4.6210513E-3,3.8651633E-3,6.6513037E-3,8.040087E-3,8.231259E-3,9.738007E-3,-2.4174491E-3,-3.088511E-3,-1.5841699E-3,-2.4176342E-3,-1.1314142E-3,-1.8902856E-3,-7.2602823E-4,-1.824981E-3,-3.4474587E-4,9.52E0,7.46E0,9.3E0,5.73E0,3.6050507E-4,1.5054403E-3,4.0228062E-4,2.0870492E-3,9.69E0,2.5881904E-1,9.57E0,3.119874E-3,1.261E1,3.5722852E-3,2.3139466E-3,4.214436E-3,1.173E1,-1.3063008E-3,-5.260364E-4,3.349831E-4,-8.257753E-4,9.7465573E-4,1.4137573E-4,3.8172185E-4,-5.7812413E-4,-0E0,1.3318107E-3,2.8574946E-3,1.6695246E-3,1.4738753E-3,2.582879E-4,1.7740882E-3,3.3509242E-3,2.3692106E-3,3.7979488E-3],"split_indices":[5,5,5,5,5,5,5,5,5,5,5,5,5,5,5,5,0,5,0,4,0,2,0,0,0,2,0,0,4,4,0,0,0,0,0,7,0,7,7,7,7,4,0,7,7,7,7,7,7,0,0,0,0,0,0,0,0,0,0,0,0,0,0,0,0,7,7,7,0,0,0,0,0,2,7,0,0,0,0,0,0,0,0,0,0,0,0,0,0,0,0,0,0,0,0,0,0,0,0],"split_type":[0,0,0,0,0,0,0,0,0,0,0,0,0,0,0,0,0,0,0,0,0,0,0,0,0,0,0,0,0,0,0,0,0,0,0,0,0,0,0,0,0,0,0,0,0,0,0,0,0,0,0,0,0,0,0,0,0,0,0,0,0,0,0,0,0,0,0,0,0,0,0,0,0,0,0,0,0,0,0,0,0,0,0,0,0,0,0,0,0,0,0,0,0,0,0,0,0,0,0],"sum_hessian":[2.7557E4,1.8548E4,9.009E3,1.1386E4,7.162E3,5.343E3,3.666E3,6.423E3,4.963E3,3.833E3,3.329E3,2.782E3,2.561E3,2.391E3,1.275E3,3.406E3,3.017E3,2.731E3,2.232E3,1.921E3,1.912E3,1.948E3,1.381E3,1.608E3,1.174E3,1.262E3,1.299E3,1.198E3,1.193E3,9.42E2,3.33E2,1.576E3,1.83E3,1.54E3,1.191E3,1.596E3,6.36E2,9.21E2,1E3,5.71E2,1.341E3,9.65E2,9.83E2,7.37E2,6.44E2,7.9E2,8.18E2,6.14E2,5.6E2,4.84E2,7.78E2,1.27E2,1.066E3,1.42E2,8E2,6.65E2,9.31E2,4.78E2,4.43E2,5.52E2,4.48E2,2.87E2,2.84E2,6.19E2,7.22E2,3.54E2,6.11E2,6.83E2,3E2,2.35E2,5.02E2,3.11E2,3.33E2,3.41E2,4.49E2,3.27E2,4.91E2,2.6E2,3.54E2,2.46E2,3.14E2,4.52E2,2.7E2,2.62E2,9.2E1,3.83E2,2.28E2,1.19E2,5.64E2,1.05E2,2.28E2,2.01E2,1.4E2,3.35E2,1.14E2,4.13E2,7.8E1,1.29E2,1.85E2],"tree_param":{"num_deleted":"0","num_feature":"9","num_nodes":"99","size_leaf_vector":"1"}},{"base_weights":[-6.583094E-4,-8.768468E-2,1.7609861E-1,-1.3217787E-1,-1.5733665E-2,1.1663054E-1,2.6594657E-1,-1.5719475E-1,-1.01292856E-1,-4.2280793E-2,1.5874507E-2,8.191843E-2,1.5520822E-1,2.3283702E-1,3.194816E-1,-1.714227E-1,-4.276258E-3,-3.472628E-3,-8.852947E-2,-5.516209E-2,-2.74202E-2,5.3731645E-3,3.6604855E-2,6.54496E-2,1.0213423E-1,1.3932343E-1,5.308837E-3,6.361786E-3,7.6725213E-3,9.062193E-3,1.0750699E-2,-5.4856464E-3,-4.950357E-3,-9.329144E-2,-2.2660845E-3,-6.534216E-2,-4.8151948E-2,-4.1215185E-2,-2.1458432E-2,-5.127561E-3,1.4481784E-2,2.558465E-2,4.9591284E-2,6.1482117E-2,2.9671164E-3,8.303536E-2,1.1191826E-1,4.5700604E-3,1.3076112E-1,-2.426408E-3,-3.0545406E-3,-1.5825988E-3,-2.446751E-3,-8.7998516E-4,-1.6621292E-3,-7.095439E-4,-1.7774719E-3,-2.6271684E-4,-3.2353442E-2,3.6517353E-4,-6.294782E-4,3.0552683E-2,5.3823725E-3,9.270287E-4,-2.7018096E-4,2.107268E-3,9.13074E-4,7.465418E-2,4.3269966E-2,3.5592031E-3,1.8320252E-3,4.041126E-3,1.0280016E-1,3.7723696E-3,4.917192E-3,-1.553067E-3,-6.8088924E-4,7.024826E-4,2.1887973E-3,4.0279574E-5,1.5917775E-3,1.722177E-3,2.7468924E-3,5.7251006E-4,1.6004159E-3,2.2897422E-3,3.391786E-3],"categories":[],"categories_nodes":[],"categories_segments":[],"categories_sizes":[],"default_left":[0,0,0,0,0,0,0,0,0,0,0,0,0,0,0,0,0,0,0,0,0,0,0,0,0,0,0,0,0,0,0,0,0,0,0,0,0,0,0,0,0,0,0,0,0,0,0,0,0,0,0,0,0,0,0,0,0,0,0,0,0,0,0,0,0,0,0,0,0,0,0,0,0,0,0,0,0,0,0,0,0,0,0,0,0,0,0],"id":15,"left_children":[1,3,5,7,9,11,13,15,17,19,21,23,25,27,29,31,-1,-1,33,35,37,39,41,43,45,47,-1,-1,-1,-1,-1,-1,-1,49,-1,51,53,55,57,59,61,63,65,67,-1,69,71,-1,73,-1,-1,-1,-1,-1,-1,-1,-1,-1,75,-1,-1,77,79,-1,-1,-1,-1,81,83,-1,-1,-1,85,-1,-1,-1,-1,-1,-1,-1,-1,-1,-1,-1,-1,-1,-1],"loss_changes":[4.2444095E2,5.917572E1,4.8568848E1,8.784943E0,5.933275E0,7.301903E0,6.293976E0,1.2592621E0,9.138069E-1,7.258706E-1,6.9767666E-1,9.3806076E-1,8.397064E-1,9.6733856E-1,7.6031494E-1,1.6897583E-1,0E0,0E0,1.4473915E-1,1.3208485E-1,1.4006245E-1,2.0617272E-1,1.4591897E-1,1.8984938E-1,2.1263981E-1,1.1955643E-1,0E0,0E0,0E0,0E0,0E0,0E0,0E0,1.8355751E-1,0E0,1.5150166E-1,1.5722942E-1,1.594488E-1,1.6954893E-1,2.7323458E-1,1.649981E-1,1.1114955E-1,1.8202376E-1,3.287425E-1,0E0,3.2284522E-1,1.3858604E-1,0E0,1.03364944E-1,0E0,0E0,0E0,0E0,0E0,0E0,0E0,0E0,0E0,1.17376864E-1,0E0,0E0,1.1364561E-1,1.373987E-1,0E0,0E0,0E0,0E0,2.2104073E-1,1.3968337E-1,0E0,0E0,0E0,1.3893604E-1,0E0,0E0,0E0,0E0,0E0,0E0,0E0,0E0,0E0,0E0,0E0,0E0,0E0,0E0],"parents":[2147483647,0,0,1,1,2,2,3,3,4,4,5,5,6,6,7,7,8,8,9,9,10,10,11,11,12,12,13,13,14,14,15,15,18,18,19,19,20,20,21,21,22,22,23,23,24,24,25,25,33,33,35,35,36,36,37,37,38,38,39,39,40,40,41,41,42,42,43,43,45,45,46,46,48,48,58,58,61,61,62,62,67,67,68,68,72,72],"right_children":[2,4,6,8,10,12,14,16,18,20,22,24,26,28,30,32,-1,-1,34,36,38,40,42,44,46,48,-1,-1,-1,-1,-1,-1,-1,50,-1,52,54,56,58,60,62,64,66,68,-1,70,72,-1,74,-1,-1,-1,-1,-1,-1,-1,-1,-1,76,-1,-1,78,80,-1,-1,-1,-1,82,84,-1,-1,-1,86,-1,-1,-1,-1,-1,-1,-1,-1,-1,-1,-1,-1,-1,-1],"split_conditions":[3.504E-1,1.746E-1,5.703E-1,8.88E-2,2.609E-1,4.61E-1,6.945E-1,4.77E-2,1.255E-1,2.192E-1,3.177E-1,4.087E-1,5.209E-1,6.316E-1,7.791E-1,2E-2,-4.276258E-3,-3.472628E-3,7.56E0,1.705653E-2,6.43E0,7.82E0,8.47E0,1.1177343E-1,3.7991155E-2,-4.3837115E-1,5.308837E-3,6.361786E-3,7.6725213E-3,9.062193E-3,1.0750699E-2,-5.4856464E-3,-4.950357E-3,5.41E0,-2.2660845E-3,5.8E0,6.91E0,5.6E0,7.98E0,6.74E0,8.3E0,9.34E0,9.48E0,9.04E0,2.9671164E-3,6.98E0,9.04E0,4.5700604E-3,1.323E1,-2.426408E-3,-3.0545406E-3,-1.5825988E-3,-2.446751E-3,-8.7998516E-4,-1.6621292E-3,-7.095439E-4,-1.7774719E-3,-2.6271684E-4,8.34E0,3.6517353E-4,-6.294782E-4,9.94E0,1.2451412E-1,9.270287E-4,-2.7018096E-4,2.107268E-3,9.13074E-4,2.9389778E-2,8.8E0,3.5592031E-3,1.8320252E-3,4.041126E-3,9.94E0,3.7723696E-3,4.917192E-3,-1.553067E-3,-6.8088924E-4,7.024826E-4,2.1887973E-3,4.0279574E-5,1.5917775E-3,1.722177E-3,2.7468924E-3,5.7251006E-4,1.6004159E-3,2.2897422E-3,3.391786E-3],"split_indices":[5,5,5,5,5,5,5,5,5,5,5,5,5,5,5,5,0,0,0,4,0,0,0,4,4,2,0,0,0,0,0,0,0,7,0,7,7,7,7,7,7,7,7,7,0,7,7,0,0,0,0,0,0,0,0,0,0,0,0,0,0,0,4,0,0,0,0,4,0,0,0,0,0,0,0,0,0,0,0,0,0,0,0,0,0,0,0],"split_type":[0,0,0,0,0,0,0,0,0,0,0,0,0,0,0,0,0,0,0,0,0,0,0,0,0,0,0,0,0,0,0,0,0,0,0,0,0,0,0,0,0,0,0,0,0,0,0,0,0,0,0,0,0,0,0,0,0,0,0,0,0,0,0,0,0,0,0,0,0,0,0,0,0,0,0,0,0,0,0,0,0,0,0,0,0,0,0],"sum_hessian":[2.7591E4,1.8489E4,9.102E3,1.1423E4,7.066E3,5.479E3,3.623E3,6.307E3,5.116E3,3.842E3,3.224E3,2.887E3,2.592E3,2.243E3,1.38E3,3.191E3,3.116E3,2.391E3,2.725E3,2.053E3,1.789E3,2.144E3,1.08E3,1.596E3,1.291E3,1.505E3,1.087E3,1.184E3,1.059E3,9.61E2,4.19E2,1.131E3,2.06E3,1.984E3,7.41E2,8.28E2,1.225E3,5.33E2,1.256E3,9.91E2,1.153E3,5.9E2,4.9E2,1.432E3,1.64E2,4.44E2,8.47E2,5.86E2,9.19E2,8.17E2,1.167E3,4.72E2,3.56E2,3.46E2,8.79E2,2.74E2,2.59E2,5.85E2,6.71E2,4.71E2,5.2E2,4.12E2,7.41E2,5.14E2,7.6E1,2.32E2,2.58E2,8.26E2,6.06E2,1.66E2,2.78E2,2.35E2,6.12E2,8.05E2,1.14E2,2.18E2,4.53E2,3.56E2,5.6E1,6.86E2,5.5E1,4.14E2,4.12E2,1.82E2,4.24E2,1.76E2,4.36E2],"tree_param":{"num_deleted":"0","num_feature":"9","num_nodes":"87","size_leaf_vector":"1"}},{"base_weights":[-6.808322E-5,-8.588443E-2,1.7003478E-1,-1.3198467E-1,-2.2153402E-2,1.1481542E-1,2.6240346E-1,-1.5375802E-1,-1.0377509E-1,-5.1170986E-2,9.175862E-3,8.0181785E-2,1.5455359E-1,2.3091008E-1,3.1446898E-1,-5.0592064E-3,-1.4183691E-1,-1.161133E-1,-9.204314E-2,-6.5924086E-2,-3.8656674E-2,-4.5304676E-3,2.9594127E-2,6.031577E-2,9.874323E-2,1.3896625E-1,5.3224238E-3,6.2610814E-3,2.4872622E-1,2.99465E-1,1.0723562E-2,-4.4802544E-3,-4.0136394E-3,-3.569237E-3,-2.83282E-3,-2.9616205E-3,-8.336957E-2,-6.794205E-2,-9.931625E-4,-9.773866E-4,-1.5031106E-3,-1.4836937E-2,5.2815196E-3,1.4583716E-3,2.4253841E-2,5.412349E-2,7.908006E-2,8.193179E-2,1.0735174E-1,1.1835147E-1,1.4480393E-1,6.4321808E-3,7.6271677E-3,7.816606E-3,9.183567E-3,-2.118624E-3,-2.7846454E-3,-1.7802841E-3,-2.3062588E-3,1.4239013E-4,-7.275766E-4,6.2164676E-4,-2.833192E-3,1.1497823E-4,3.5243466E-2,6.545198E-2,9.381189E-4,3.1409506E-3,1.8600691E-3,3.2896083E-3,1.8128579E-3,3.7128164E-3,9.284123E-2,4.1881884E-3,2.4495765E-3,4.934971E-3,1.3766965E-1,-2.0351596E-4,1.3359643E-3,1.500019E-3,6.433994E-4,1.6968369E-3,2.6227154E-3,2.1891736E-3,3.5425886E-3,3.5848985E-3,4.3911478E-3],"categories":[],"categories_nodes":[],"categories_segments":[],"categories_sizes":[],"default_left":[0,0,0,0,0,0,0,0,0,0,0,0,0,0,0,0,0,0,0,0,0,0,0,0,0,0,0,0,0,0,0,0,0,0,0,0,0,0,0,0,0,0,0,0,0,0,0,0,0,0,0,0,0,0,0,0,0,0,0,0,0,0,0,0,0,0,0,0,0,0,0,0,0,0,0,0,0,0,0,0,0,0,0,0,0,0,0],"id":16,"left_children":[1,3,5,7,9,11,13,15,17,19,21,23,25,27,29,-1,31,33,35,37,39,41,43,45,47,49,-1,-1,51,53,-1,-1,-1,-1,-1,-1,55,57,-1,-1,-1,59,61,-1,63,65,67,69,71,73,75,-1,-1,-1,-1,-1,-1,-1,-1,-1,-1,-1,77,-1,79,81,-1,-1,-1,-1,-1,-1,83,-1,-1,-1,85,-1,-1,-1,-1,-1,-1,-1,-1,-1,-1],"loss_changes":[4.0333804E2,5.3941254E1,4.718869E1,6.503372E0,7.014737E0,7.947914E0,5.554474E0,1.0112762E0,6.411514E-1,7.2641563E-1,1.0400795E0,1.1223431E0,9.0545654E-1,7.5852966E-1,6.669464E-1,0E0,1.5389252E-1,1.0746956E-1,1.1204338E-1,1.0903931E-1,1.4126396E-1,2.2513121E-1,1.4306629E-1,1.5715504E-1,2.0383072E-1,1.505413E-1,0E0,0E0,1.2434387E-1,1.15493774E-1,0E0,0E0,0E0,0E0,0E0,0E0,1.03987694E-1,1.1417627E-1,0E0,0E0,0E0,2.0231178E-1,1.435522E-1,0E0,2.587552E-1,2.8289604E-1,1.3740206E-1,3.0422473E-1,2.1709251E-1,2.5118542E-1,1.2249184E-1,0E0,0E0,0E0,0E0,0E0,0E0,0E0,0E0,0E0,0E0,0E0,1.346255E-1,0E0,1.4611322E-1,1.2853384E-1,0E0,0E0,0E0,0E0,0E0,0E0,2.5567484E-1,0E0,0E0,0E0,1.0236168E-1,0E0,0E0,0E0,0E0,0E0,0E0,0E0,0E0,0E0,0E0],"parents":[2147483647,0,0,1,1,2,2,3,3,4,4,5,5,6,6,7,7,8,8,9,9,10,10,11,11,12,12,13,13,14,14,16,16,17,17,18,18,19,19,20,20,21,21,22,22,23,23,24,24,25,25,28,28,29,29,36,36,37,37,41,41,42,42,44,44,45,45,46,46,47,47,48,48,49,49,50,50,62,62,64,64,65,65,72,72,76,76],"right_children":[2,4,6,8,10,12,14,16,18,20,22,24,26,28,30,-1,32,34,36,38,40,42,44,46,48,50,-1,-1,52,54,-1,-1,-1,-1,-1,-1,56,58,-1,-1,-1,60,62,-1,64,66,68,70,72,74,76,-1,-1,-1,-1,-1,-1,-1,-1,-1,-1,-1,78,-1,80,82,-1,-1,-1,-1,-1,-1,84,-1,-1,-1,86,-1,-1,-1,-1,-1,-1,-1,-1,-1,-1],"split_conditions":[3.472E-1,1.588E-1,5.821E-1,8.44E-2,2.459E-1,4.648E-1,7.031E-1,4.11E-2,1.18E-1,1.985E-1,3.031E-1,4.002E-1,5.299E-1,6.316E-1,7.949E-1,-5.0592064E-3,6.36E-2,3.3075947E-2,6.6E0,9.98E0,5.7357645E-1,7.82E0,6.74E0,1.032E1,3.7991155E-2,8.22E0,5.3224238E-3,6.2610814E-3,5.641549E-2,6.306807E-2,1.0723562E-2,-4.4802544E-3,-4.0136394E-3,-3.569237E-3,-2.83282E-3,-2.9616205E-3,7.05E0,6.74E0,-9.931625E-4,-9.773866E-4,-1.5031106E-3,5.73E0,8.13E0,1.4583716E-3,8.06E0,9E0,1.042E1,7.52E0,9.98E0,8.4E0,9.19E0,6.4321808E-3,7.6271677E-3,7.816606E-3,9.183567E-3,-2.118624E-3,-2.7846454E-3,-1.7802841E-3,-2.3062588E-3,1.4239013E-4,-7.275766E-4,6.2164676E-4,1.204E1,1.1497823E-4,9.39E0,3.7991155E-2,9.381189E-4,3.1409506E-3,1.8600691E-3,3.2896083E-3,1.8128579E-3,3.7128164E-3,1.173E1,4.1881884E-3,2.4495765E-3,4.934971E-3,1.037E1,-2.0351596E-4,1.3359643E-3,1.500019E-3,6.433994E-4,1.6968369E-3,2.6227154E-3,2.1891736E-3,3.5425886E-3,3.5848985E-3,4.3911478E-3],"split_indices":[5,5,5,5,5,5,5,5,5,5,5,5,5,5,5,0,5,4,0,0,2,0,7,0,4,0,0,0,4,4,0,0,0,0,0,0,7,7,0,0,0,7,7,0,0,7,7,7,7,7,7,0,0,0,0,0,0,0,0,0,0,0,0,0,7,4,0,0,0,0,0,0,0,0,0,0,0,0,0,0,0,0,0,0,0,0,0],"split_type":[0,0,0,0,0,0,0,0,0,0,0,0,0,0,0,0,0,0,0,0,0,0,0,0,0,0,0,0,0,0,0,0,0,0,0,0,0,0,0,0,0,0,0,0,0,0,0,0,0,0,0,0,0,0,0,0,0,0,0,0,0,0,0,0,0,0,0,0,0,0,0,0,0,0,0,0,0,0,0,0,0,0,0,0,0,0,0],"sum_hessian":[2.7629E4,1.8365E4,9.264E3,1.0655E4,7.71E3,5.8E3,3.464E3,6.009E3,4.646E3,4.004E3,3.706E3,3.102E3,2.698E3,2.163E3,1.301E3,2.663E3,3.346E3,2.256E3,2.39E3,1.832E3,2.172E3,2.215E3,1.491E3,1.503E3,1.599E3,1.611E3,1.087E3,9.71E2,1.192E3,9.72E2,3.29E2,1.716E3,1.63E3,1.985E3,2.71E2,1.338E3,1.052E3,1.722E3,1.1E2,1.427E3,7.45E2,1.085E3,1.13E3,3.21E2,1.17E3,1.137E3,3.66E2,5.49E2,1.05E3,3.64E2,1.247E3,1.73E2,1.019E3,1.5E2,8.22E2,4.56E2,5.96E2,8.87E2,8.35E2,3.49E2,7.36E2,3.93E2,7.37E2,4.13E2,7.57E2,7.56E2,3.81E2,1.42E2,2.24E2,2.36E2,3.13E2,4.86E2,5.64E2,2.27E2,1.37E2,3.22E2,9.25E2,6.83E2,5.4E1,3.61E2,3.96E2,5.44E2,2.12E2,3.2E2,2.44E2,3.08E2,6.17E2],"tree_param":{"num_deleted":"0","num_feature":"9","num_nodes":"87","size_leaf_vector":"1"}},{"base_weights":[-3.724275E-4,-8.5888654E-2,1.5872255E-1,-1.2744538E-1,-2.4087613E-2,9.506459E-2,2.3826428E-1,-1.508999E-1,-1.023237E-1,-4.963287E-2,3.8503984E-3,6.289E-2,1.2685525E-1,2.0033167E-1,2.8899515E-1,-4.9608587E-3,-1.4050753E-1,-3.4870838E-3,-9.038183E-2,-6.125759E-2,-3.5966642E-2,-1.074601E-2,1.842638E-2,4.6967737E-2,7.74091E-2,1.1390012E-1,1.4635466E-1,5.3733666E-3,2.1946305E-1,7.961809E-3,3.2229245E-1,-4.4531072E-3,-4.0265E-3,-2.9012018E-3,-2.4491556E-3,-6.732833E-2,-1.4984523E-3,-7.999287E-4,-1.3387926E-3,-1.8750964E-2,-1.1577478E-5,3.982045E-3,2.630252E-2,3.3442102E-2,5.795749E-2,6.4809345E-2,8.817109E-2,3.7844828E-3,1.02756485E-1,1.3464291E-1,1.6021718E-1,5.6508994E-3,6.810514E-3,9.211232E-3,1.0774449E-2,-1.7462488E-3,-2.4821004E-3,-8.434576E-5,-2.757726E-2,6.7241164E-4,-3.912599E-4,3.771473E-2,1.0092574E-2,1.4622232E-3,3.5217722E-4,2.306439E-3,1.2062441E-3,2.465917E-3,1.2497294E-3,3.2226744E-3,7.4529976E-2,2.9072508E-3,3.9415285E-3,4.4811275E-3,3.498469E-3,5.773484E-3,4.4697504E-3,-1.4081763E-3,-5.4094335E-4,9.446025E-4,2.0817616E-3,-3.5563426E-5,9.342889E-4,1.3225123E-3,2.634617E-3],"categories":[],"categories_nodes":[],"categories_segments":[],"categories_sizes":[],"default_left":[0,0,0,0,0,0,0,0,0,0,0,0,0,0,0,0,0,0,0,0,0,0,0,0,0,0,0,0,0,0,0,0,0,0,0,0,0,0,0,0,0,0,0,0,0,0,0,0,0,0,0,0,0,0,0,0,0,0,0,0,0,0,0,0,0,0,0,0,0,0,0,0,0,0,0,0,0,0,0,0,0,0,0,0,0],"id":17,"left_children":[1,3,5,7,9,11,13,15,17,19,21,23,25,27,29,-1,31,-1,33,35,37,39,41,43,45,47,49,-1,51,-1,53,-1,-1,-1,-1,55,-1,-1,-1,57,-1,59,61,63,65,67,69,-1,71,73,75,-1,-1,-1,-1,-1,-1,-1,77,-1,-1,79,81,-1,-1,-1,-1,-1,-1,-1,83,-1,-1,-1,-1,-1,-1,-1,-1,-1,-1,-1,-1,-1,-1],"loss_changes":[3.7446237E2,4.5958572E1,4.8664642E1,6.265625E0,5.143292E0,5.442234E0,8.121704E0,7.774582E-1,8.282776E-1,5.8588696E-1,7.324245E-1,5.9908867E-1,6.360893E-1,9.1584015E-1,1.2906952E0,0E0,1.12888336E-1,0E0,1.2867165E-1,1.2414217E-1,1.3152671E-1,1.4030755E-1,1.929987E-1,1.7844224E-1,1.6706276E-1,1.8555069E-1,1.2200928E-1,0E0,2.168808E-1,0E0,2.4525452E-1,0E0,0E0,0E0,0E0,1.6531754E-1,0E0,0E0,0E0,1.3222373E-1,0E0,1.9389144E-1,2.00364E-1,1.8529022E-1,2.1964788E-1,2.4464631E-1,1.6839266E-1,0E0,1.0825157E-1,1.121006E-1,1.1049652E-1,0E0,0E0,0E0,0E0,0E0,0E0,0E0,1.06324285E-1,0E0,0E0,1.1556846E-1,1.131894E-1,0E0,0E0,0E0,0E0,0E0,0E0,0E0,1.6098332E-1,0E0,0E0,0E0,0E0,0E0,0E0,0E0,0E0,0E0,0E0,0E0,0E0,0E0,0E0],"parents":[2147483647,0,0,1,1,2,2,3,3,4,4,5,5,6,6,7,7,8,8,9,9,10,10,11,11,12,12,13,13,14,14,16,16,18,18,19,19,20,20,21,21,22,22,23,23,24,24,25,25,26,26,28,28,30,30,35,35,39,39,41,41,42,42,43,43,44,44,45,45,46,46,48,48,49,49,50,50,58,58,61,61,62,62,70,70],"right_children":[2,4,6,8,10,12,14,16,18,20,22,24,26,28,30,-1,32,-1,34,36,38,40,42,44,46,48,50,-1,52,-1,54,-1,-1,-1,-1,56,-1,-1,-1,58,-1,60,62,64,66,68,70,-1,72,74,76,-1,-1,-1,-1,-1,-1,-1,78,-1,-1,80,82,-1,-1,-1,-1,-1,-1,-1,84,-1,-1,-1,-1,-1,-1,-1,-1,-1,-1,-1,-1,-1,-1],"split_conditions":[3.338E-1,1.608E-1,5.412E-1,7.86E-2,2.434E-1,4.296E-1,6.676E-1,3.71E-2,1.134E-1,2.055E-1,2.852E-1,3.76E-1,4.937E-1,5.975E-1,7.456E-1,-4.9608587E-3,5.48E-2,-3.4870838E-3,1.393E-1,7.56E0,8.7155744E-2,8.06E0,2.5785364E-2,3.5337377E-2,8.8E0,6.123234E-17,1.032E1,5.3733666E-3,5.5607695E-2,7.961809E-3,8.144E-1,-4.4531072E-3,-4.0265E-3,-2.9012018E-3,-2.4491556E-3,6.74E0,-1.4984523E-3,-7.999287E-4,-1.3387926E-3,6.01E0,-1.1577478E-5,6.74E0,9.39E0,7.82E0,9.51E0,8.16E0,9.65E0,3.7844828E-3,1.25E1,9.15E0,1.042E1,5.6508994E-3,6.810514E-3,9.211232E-3,1.0774449E-2,-1.7462488E-3,-2.4821004E-3,-8.434576E-5,1.615277E-2,6.7241164E-4,-3.912599E-4,1.007E1,8.071331E-2,1.4622232E-3,3.5217722E-4,2.306439E-3,1.2062441E-3,2.465917E-3,1.2497294E-3,3.2226744E-3,1.026E1,2.9072508E-3,3.9415285E-3,4.4811275E-3,3.498469E-3,5.773484E-3,4.4697504E-3,-1.4081763E-3,-5.4094335E-4,9.446025E-4,2.0817616E-3,-3.5563426E-5,9.342889E-4,1.3225123E-3,2.634617E-3],"split_indices":[5,5,5,5,5,5,5,5,5,5,5,5,5,5,5,0,5,0,5,0,2,0,4,4,0,2,0,0,4,0,5,0,0,0,0,7,0,0,0,7,0,7,7,7,7,7,7,0,0,7,7,0,0,0,0,0,0,0,4,0,0,0,4,0,0,0,0,0,0,0,0,0,0,0,0,0,0,0,0,0,0,0,0,0,0],"split_type":[0,0,0,0,0,0,0,0,0,0,0,0,0,0,0,0,0,0,0,0,0,0,0,0,0,0,0,0,0,0,0,0,0,0,0,0,0,0,0,0,0,0,0,0,0,0,0,0,0,0,0,0,0,0,0,0,0,0,0,0,0,0,0,0,0,0,0,0,0,0,0,0,0,0,0,0,0,0,0,0,0,0,0,0,0],"sum_hessian":[2.7522E4,1.7901E4,9.621E3,1.0702E4,7.199E3,5.346E3,4.275E3,5.53E3,5.172E3,3.762E3,3.437E3,2.66E3,2.686E3,2.45E3,1.825E3,2.302E3,3.228E3,2.381E3,2.791E3,2.027E3,1.735E3,1.714E3,1.723E3,1.274E3,1.386E3,1.621E3,1.065E3,1.169E3,1.281E3,1.075E3,7.5E2,1.411E3,1.817E3,1.607E3,1.184E3,1.31E3,7.17E2,8.44E2,8.91E2,9.61E2,7.53E2,6.13E2,1.11E3,5.77E2,6.97E2,6.46E2,7.4E2,7.63E2,8.58E2,5.87E2,4.78E2,2.58E2,1.023E3,5.39E2,2.11E2,8.3E2,4.8E2,3.47E2,6.14E2,2.97E2,3.16E2,6.47E2,4.63E2,3.35E2,2.42E2,3.33E2,3.64E2,3.65E2,2.81E2,3.01E2,4.39E2,7.19E2,1.39E2,3.16E2,2.71E2,1.17E2,3.61E2,1.98E2,4.16E2,5.45E2,1.02E2,2.99E2,1.64E2,1.37E2,3.02E2],"tree_param":{"num_deleted":"0","num_feature":"9","num_nodes":"85","size_leaf_vector":"1"}},{"base_weights":[2.977148E-4,-7.916438E-2,1.62947E-1,-1.2269803E-1,-1.6469058E-2,1.08007416E-1,2.4306047E-1,-1.4325051E-1,-9.4717406E-2,-4.1920546E-2,1.4685102E-2,7.5298846E-2,1.3991682E-1,2.1213843E-1,2.9342854E-1,-1.5482631E-1,-3.8361028E-3,-3.143867E-3,-8.217888E-2,-5.3299244E-2,-2.5615001E-2,4.087635E-3,3.4677174E-2,6.167423E-2,9.228196E-2,3.6458618E-3,1.5679152E-1,5.8100247E-3,6.9678263E-3,8.213565E-3,3.239671E-1,-4.9358485E-3,-4.421473E-3,-2.6935867E-3,-2.230763E-3,-1.8847936E-3,-1.3747566E-3,-3.7909195E-2,-2.0394336E-2,-6.1723636E-3,1.3186686E-2,1.4682519E-3,7.8867166E-4,2.3006212E-3,5.323592E-2,3.2932034E-3,8.290361E-2,1.3564159E-1,1.630612E-1,9.3451E-3,1.1004695E-2,-5.626063E-4,-1.6486244E-3,-2.7483449E-4,-9.1006974E-4,2.8588684E-4,-6.1106123E-4,2.9257935E-2,4.0892498E-3,4.0646587E-2,6.7228615E-2,7.1354784E-2,2.965167E-3,5.090632E-3,3.4052425E-3,5.742547E-3,1.5468974E-1,6.674408E-4,2.2017115E-3,1.9907855E-5,1.4198868E-3,1.4311062E-3,2.375866E-4,2.7405815E-3,1.6430989E-3,3.4355866E-3,1.8891367E-3,3.3296205E-3,4.7759023E-3],"categories":[],"categories_nodes":[],"categories_segments":[],"categories_sizes":[],"default_left":[0,0,0,0,0,0,0,0,0,0,0,0,0,0,0,0,0,0,0,0,0,0,0,0,0,0,0,0,0,0,0,0,0,0,0,0,0,0,0,0,0,0,0,0,0,0,0,0,0,0,0,0,0,0,0,0,0,0,0,0,0,0,0,0,